-0.0012136,-0.0015276,-0.01688,5.3341e-05,0.030028,0.0077241,-0.015526,-0.0023267,0.0033079,0.0016336,-0.00082532,0.015907,-0.004374,-0.04337,-0.039044,0.031505,0.09801,0.061217,-0.008392,-0.022648,-0.012795,-0.019717,-0.025027,-0.03495,-0.037076,-0.048353,-0.049451,-0.042869,-0.02043,-0.00088362,0.0071051,0.011878,0.026566,0.017814,0.029538,0.053631,0.083053,0.10526,0.12194,0.11642,0.098488,0.07752,0.065729,0.061505,-0.0029857,-0.033132,-0.025852,-0.008461,0.021092,0.038207,0.030961,0.02443,0.02341,0.012757,0.0033742,0.0053184,0.022382,-0.0046686,-0.033208,-0.011477,0.0060365,0.033969,0.060096,-0.019631,-0.055353,0.02045,0.044482,0.031346,0.044029,0.037552,0.024071,0.016653,0.0065918,0.0029307,-0.011836,-0.022859,-0.032219,0.05172,0.058147,0.055637,0.036202,0.019663,-0.0061947,-0.031101,-0.059683,-0.068501,-0.049119,-0.029513,-0.015519,-0.022206,-0.029439,-0.028477,-0.031182,-0.027153,-0.0257,-0.026956,-0.024245,-0.013633,-0.020073,-0.0046511,-0.0031493,-0.00030872,-0.01594,-0.011694,0.02693,0.0057742,-0.0096049,0.002728,-0.0029038,-0.00013372,-0.0089042,-0.0079056,-0.010401,-0.010527,-0.00652,-0.0046008,-0.0064764,-0.0072899,-0.0089621,-0.0088593,-0.0013805,-0.0043253,-0.015333,-0.020971,-0.013756,0.012835,0.044433,0.053813,0.036251,0.0081912,-0.016143,-0.020823,-0.02337,-0.018713,0.020718,0.013013,0.035166,-0.0040332,-0.046051,-0.012417,0.021913,0.0035985,-0.0018658,-0.0018846,-0.01781,-0.00043747,0.026979,-0.037043,0.020767,0.076179,-0.093261,-0.02457,0.11905,-0.073369,0.014136,0.014281,0.012164,-0.0015524,-0.019988,-0.027096,-0.036875,-0.02695,-0.0052591,0.0061663,0.015506,-0.023774,-0.021933,-0.021638,-0.015042,-0.011824,0.0039215,0.011579,0.0056941,0.0045992,0.014497,0.00052496,0.0024306,0.005796,0.0068668,0.0095093,0.0075671,0.0065206,0.0073421,0.0051278,0.0021416,0.0002453,-0.00057051,0.012386,-0.0012191,-0.025925,-0.035886,-0.038178,-0.044773,-0.00029894,0.017847,0.025966,0.022953,0.0090927,0.0093367,0.025817,0.044723,0.038532,-0.00083904,-0.059836,-0.074571,-0.047437,-0.0098789,0.0041487,0.0074611,0.0057974,-0.002439,-0.01815,-0.033644,-0.029225,-0.018355,-0.010229,-0.012726,-0.0050666,-0.0024929,0.0025578,-0.0090567,0.012808,0.018625,-0.052051,0.040732,-0.002992,-0.050131,0.044873,0.0017844,-0.022599,0.010299,0.0027156,0.012362,0.016826,0.020665,0.025091,0.024327,0.017312,0.016081,0.0035968,0.0060059,-0.0039526,-0.0095359,0.010321,0.034886,0.010468,-0.030052,-0.032486,0.017661,0.010492,-0.0087969,0.0049368,-0.0021192,-0.0037451,0.028541,0.0033106,-0.036992,-0.057595,-0.0064408,0.052014,0.021619,-0.014131,-0.002258,0.0053682,0.0071424,0.006061,0.0080867,0.017221,0.014945,0.010623,0.020304,0.031762,0.051436,0.06871,0.077136,-0.010586,-0.026955,-0.010888,-0.0079328,-0.0019587,0.01791,0.027146,0.011989,0.018069,0.014293,-0.031983,-0.035904,-0.042531,-0.059984,-0.071825,-0.076259,-0.077666,-0.078234,-0.075445,-0.067937,-0.056409,-0.064264,-0.0028719,-0.0066273,0.0031299,0.0063582,-0.0084641,-0.0088769,0.0087444,0.0047431,-0.0089033,-0.0039962,-0.0016636,0.034551,0.031825,0.033429,0.038096,0.033016,0.030102,0.023569,0.016226,0.017464,0.016061,0.013527,0.013709,-0.00052006,-0.0013127,-0.010655,-0.024649,-0.045981,-0.061171,-0.062652,-0.043284,-0.010231,0.028267,-0.030325,-0.016896,0.019465,0.057796,0.07132,0.070874,0.049382,0.011015,-0.0093911,-0.0129,-0.0053871,-0.033396,-0.056577,-0.074828,-0.077486,-0.095829,-0.096292,-0.08968,-0.07293,-0.060728,-0.04183,-0.027258,-0.0070857,-0.017139,-0.038508,-0.0045619,0.045129,0.067837,0.073696,0.010539,-0.055075,-0.046855,-0.012531,-0.0080692,-0.027157,-0.038983,-0.050855,-0.057368,-0.059057,-0.065642,-0.04885,-0.016525,-0.0026341,0.014642,-0.044998,-0.081694,-0.11697,-0.11953,-0.057231,0.040726,0.094692,0.11117,0.099143,0.060649,0.040482,-0.0066138,-0.029682,-0.028789,0.073692,0.087418,-0.0048223,-0.043284,-0.049655,-0.028626,0.015272,0.019274,0.040449,0.032321,0.034499,0.029481,0.014467,0.012221,0.0052465,2.8133e-05,0.00094999,0.0011483,0.0066078,0.0019537,0.0044994,0.022851,0.012629,-0.039815,-0.039611,-0.00029762,0.025044,0.016663,-0.0021952,-0.0028303,-0.0047759,-0.034886,0.074187,-0.034071,-0.030533,0.082819,-0.082769,0.023474,0.031165,-0.02851,-0.0016692,-0.0089888,0.0046132,0.0058961,0.0021338,-0.00010925,0.011967,0.0093169,0.0024373,0.0086334,0.0046454,0.019359,0.0051055,-0.0070213,-0.0055234,-0.010428,-0.022268,-0.01496,-0.015332,-0.0056803,0.025408,0.02472,0.022374,0.016489,0.0083191,-0.026561,-0.0078727,0.029279,0.0037175,-0.024099,-0.011763,0.039612,-0.0080308,-0.018035,-0.025087,-0.031618,-0.030016,-0.013726,-0.0023335,0.0041961,0.0058844,0.0022765,-0.0016286,-0.0021138,0.0021596,-0.011956,0.0045878,0.0035236,-0.0013009,7.7297e-05,-0.0041937,-0.0062129,-0.0050767,0.0010757,-0.0040059,-0.0076872,-0.052907,-0.051708,-0.049494,-0.041623,-0.020623,0.0078622,0.023675,0.039837,0.05554,0.047856,0.038246,-0.0026119,-0.0093002,-0.012721,-0.016394,-0.022744,-0.017223,-0.012841,-0.019845,-0.036355,-0.063722,-0.077564,0.018778,0.015481,0.0092181,0.0029452,0.0085269,0.016891,0.018502,0.01814,0.019168,0.025717,0.034132,-0.0045132,0.0010084,0.00014756,0.0052314,0.0097785,0.018228,0.013157,0.010507,0.0010101,0.0048561,-0.0049994,0.0028324,0.0051084,0.0042436,0.0053784,0.0048976,0.0083391,0.005492,0.003662,0.0058186,0.0073293,0.0054508,-0.011272,-0.017559,-0.022083,-0.029666,-0.035528,-0.027687,-0.016061,-0.010639,0.0012451,0.0084018,0.016672,-0.0062153,-0.00589,0.00039517,-0.00076821,-0.0031881,0.0029595,0.020199,0.081948,0.098294,0.07116,0.027133,-0.0034744,-0.007185,-0.011408,-0.002329,-0.0020455,-0.00025079,-0.0016328,0.00263,-0.0041912,-0.01309,-0.014349,0.0020609,0.0028131,0.0061675,-0.00073694,-0.0050923,-0.0012354,-0.0011602,0.00046729,0.00091497,-0.002559,-0.0025287,-0.12212,-0.1308,-0.087193,-0.048334,-0.02675,-0.028571,-0.018485,0.0021095,0.010301,0.021732,0.038214,0.015292,0.020434,0.025251,0.031533,0.042041,0.061124,0.066997,0.068174,0.063345,0.043893,0.030866,0.03024,0.031656,0.038612,0.038762,0.042817,0.032714,0.026957,0.031773,0.03237,0.027263,0.031154,-0.0014811,-0.0016257,0.0023705,0.0032497,0.0020207,0.0040046,-0.005377,-0.0056764,-0.013576,-0.01409,-0.01955,0.015683,0.031145,0.034349,0.041258,0.04658,0.047798,0.053546,0.050172,0.049782,0.044357,0.049267,-0.0229,-0.028628,-0.040349,-0.052006,-0.058405,-0.060791,-0.059352,-0.057472,-0.041281,-0.029433,-0.027201,0.01329,-0.0027654,-0.0050734,-0.0065026,-0.0059332,-0.0067714,-0.0034458,-0.002253,0.0037604,0.0033449,0.0014876,-0.006482,-0.011868,-0.0121,-0.019733,-0.020936,-0.023943,-0.031024,-0.032327,-0.02976,-0.03281,-0.031461,0.00059289,0.00033158,0.0028389,-0.0023696,-0.0090584,-0.0051614,-0.0050036,-0.00045557,-0.001415,0.0027108,-0.00062162,0.020076,0.016784,0.0079587,0.010044,0.015593,0.027074,0.032324,0.026288,0.0146,0.016073,0.031621,-0.0078222,-0.0010029,-0.0020561,-0.0047922,-0.0050725,-0.0053998,-0.0055692,-0.0034344,-0.0014247,-0.0029307,-0.0068028,-0.01251,-0.010365,-0.0045212,-0.011011,-0.011484,-0.006624,0.0021932,0.0016455,0.0093352,0.015867,0.0038266,0.015488,0.018812,0.022537,0.017046,0.017342,0.020178,0.014395,0.020764,0.023026,0.023554,0.032417,0.012193,-0.0076722,-0.030539,-0.046708,-0.063697,-0.068355,-0.079281,-0.082536,-0.083862,-0.066292,-0.07187,-0.0095684,-0.013163,-0.012119,-0.013778,-0.010154,-0.0050304,-0.0027172,-0.0010892,-0.0091555,-0.012263,-0.006236,-0.022719,-0.0029768,0.0044215,0.025095,0.043154,0.063419,0.080997,0.093542,0.10058,0.086822,0.095062,0.11063,0.097045,0.10715,0.11488,0.11211,0.10929,0.1002,0.086582,0.075201,0.058559,0.041676,-0.097217,-0.1061,-0.10917,-0.10209,-0.084765,-0.074071,-0.064664,-0.047939,-0.02553,-0.013085,-0.00060934,-0.029132,-0.019946,-0.017918,-0.014444,-0.0053671,-2.0753e-05,0.0043182,0.0063581,0.0045522,0.0024294,0.0017424,0.074766,0.066236,0.05158,0.041797,0.035976,0.031235,0.043824,0.048674,0.040589,0.041393,0.05041,0.059211,0.043014,0.030078,0.022791,0.017184,0.011177,0.004434,-0.011594,-0.030692,-0.046433,-0.069893,-0.030342,-0.056407,-0.074953,-0.075303,-0.048697,-0.011779,0.024256,0.047541,0.061459,0.058578,0.040226,-0.038127,-0.034681,-0.036741,-0.039932,-0.041838,-0.045969,-0.048709,-0.048098,-0.039813,-0.031409,-0.025391,-0.00064736,-0.0033646,0.00082388,0.011514,0.016587,0.02266,0.019005,0.023915,0.026389,0.038731,0.054378,0.03786,0.035695,0.041204,0.045101,0.043808,0.043223,0.049079,0.049344,0.052575,0.049393,0.053551,0.056048,0.020406,0.023194,0.0063938,0.00036837,0.0030868,0.0042145,-0.012132,-0.028281,-0.041759,-0.070586,-0.0016544,-0.012519,-0.033989,0.039944,0.045782,-0.032849,0.013063,0.019041,-0.0076919,0.0059444,0.0085896,0.0065301,0.0065188,0.0081149,0.0067498,0.0069122,-0.0015447,-0.0057879,-0.012483,-0.005922,-0.00087239,-0.0020564,-0.0019559,-0.0014855,-0.004791,-0.008206,-0.012083,-0.0046312,-0.01073,-0.012683,-0.010166,-0.0079648,-0.016265,-0.041185,-0.042643,-0.041267,-0.041224,-0.032081,-0.023584,-0.02164,-0.022435,-0.019692,-0.018302,-0.021855,0.023222,0.0058547,0.0030369,0.00319,-0.0034365,0.0025571,0.0090836,0.016482,0.025788,0.03292,0.04561,-0.037766,-0.034764,-0.032104,-0.031072,-0.032273,-0.049873,-0.070068,-0.074774,-0.043863,-0.042458,-0.042264,-0.030724,-0.027432,-0.027098,-0.023142,-0.036396,-0.038541,-0.034696,-0.029853,-0.039925,-0.035989,-0.028274,0.00096405,0.0053786,0.0038424,-0.0020045,-0.008775,-0.0079317,-0.0034624,0.0061316,0.016186,0.01295,0.0059693,0.010993,0.016665,0.024344,0.023896,0.030712,0.022143,0.025502,0.019956,0.019079,0.015704,0.011446,0.00054232,0.01695,0.011268,0.0035598,-0.0069315,-0.012883,-0.0053114,0.0034316,0.0084166,0.0047577,0.0044663,0.037385,0.035342,0.029567,0.017447,0.0066906,0.0045,-0.0023228,-0.011699,-0.01967,-0.021278,-0.01818,-0.095033,-0.13463,-0.1616,-0.14082,-0.10019,-0.056939,-0.035456,-0.023926,-0.017205,-0.014992,-0.015966,-0.045146,-0.02833,-0.01994,-0.0032274,0.0016469,0.0053416,0.010551,0.027109,0.047668,0.06313,0.083996,-0.0017621,-0.005111,0.012782,-0.017549,-0.0063428,0.0010998,-0.001716,0.0038536,0.0016897,0.0013351,0.0042599,0.0039869,0.0019819,0.003194,-0.0042701,8.6825e-05,0.001018,0.0067942,0.0030215,0.0061473,-0.001627,-0.0021582,-0.057573,-0.060135,-0.061143,-0.056427,-0.04884,-0.03509,-0.029204,-0.011941,-0.010296,-0.010866,-0.012064,0.0079678,0.012494,0.024853,0.041937,0.048684,0.051314,0.04333,0.035698,0.027533,0.016678,0.007691
0.0032365,0.0023613,-0.019697,-0.021707,0.034902,0.035199,-0.0090791,-0.023335,-0.001739,0.0039729,-0.005149,0.013453,-0.044275,-0.078232,-0.0094322,0.10611,0.12499,0.0013859,-0.061479,-0.04087,-0.0078294,-0.00017609,-0.041921,-0.036785,-0.025442,-0.024099,-0.021477,-0.016771,0.0011479,0.016194,0.0089199,0.0017761,0.014359,0.01555,0.019027,0.035568,0.070723,0.096839,0.10457,0.091624,0.081137,0.074181,0.052897,0.04759,0.0082684,-0.025689,-0.034877,-0.035531,-0.0091592,0.021699,0.028033,0.026598,0.038827,0.021266,0.01225,0.0010667,0.034336,-0.0019409,-0.058322,-0.017367,0.014488,0.037488,0.061789,-0.051457,-0.057848,0.037364,0.053829,0.030206,0.029213,0.024964,0.018285,0.0015652,-0.010116,-0.0087069,-0.019053,-0.019644,-0.027244,0.011974,-0.012833,-0.046628,-0.064185,-0.073057,-0.08056,-0.074451,-0.047555,-0.017841,0.0090088,0.054255,0.01138,0.0030743,-0.0057898,-0.018614,-0.024859,-0.029241,-0.027837,-0.030832,-0.032624,-0.033811,-0.036874,0.0036705,-0.0073742,0.0073193,0.039331,-0.025315,-0.049645,0.024182,0.013234,-0.0061303,0.0050325,0.0027951,-0.01174,-0.010742,-0.010222,-0.0089476,-0.0070988,-0.0097173,-0.01189,-0.0096412,-0.010448,-0.013385,-0.0060514,-0.00011166,0.024738,0.058164,0.071119,0.053545,-0.010999,-0.074213,-0.10549,-0.088106,-0.04001,0.0088824,-0.032439,-0.010759,0.030988,0.030871,0.028776,-0.026772,-0.049796,0.014304,0.025982,-0.0066743,0.0031535,0.0022416,0.017869,-0.046197,0.027452,0.01307,-0.10792,0.11297,0.092467,-0.2056,0.057873,0.046745,-0.0012673,0.012845,0.023634,0.019536,0.013605,-0.00035208,-0.025,-0.03753,-0.018377,-0.00087419,0.0049477,-0.007655,0.00029414,0.0014652,0.0054606,-0.00061219,0.0048537,0.005379,0.003974,-0.0092312,0.0021247,-0.00043936,0.01646,0.0084492,0.0047793,0.010436,0.0082341,0.005778,0.00056529,0.0023161,-0.00060897,-0.0058507,-0.0071594,0.0192,0.019925,-0.0098522,-0.027016,-0.031845,-0.033809,0.0065317,0.024111,0.028237,0.024555,0.0094539,-0.037044,-0.03175,-0.012497,0.057909,0.1411,0.14739,0.053577,-0.046345,-0.074099,-0.054671,-0.037371,-0.0053169,-0.016425,-0.030193,-0.026361,-0.010345,0.014075,0.016442,0.014203,0.019707,0.021697,0.016631,-0.029267,0.072284,-0.06111,-0.025467,0.10016,-0.083299,-0.013344,0.07815,-0.04773,-0.0053308,0.012167,-0.014551,-0.025783,-0.043468,-0.061527,-0.073203,-0.0848,-0.065107,-0.048932,-0.038303,-0.025465,-0.0030504,-0.021595,-0.006643,0.037135,0.028529,-0.019578,-0.042038,0.0045426,0.024075,-0.014006,0.0062556,-0.0068865,-0.029656,-0.0093809,0.08956,0.099741,0.0042654,-0.12081,-0.10833,0.01756,0.047397,-0.0022512,-0.014617,-0.0020167,-0.0030706,0.0039054,0.0051214,-0.0031991,-0.0062027,-0.0027993,0.0057818,0.015128,0.019179,0.026682,-0.011645,-0.023334,-0.006577,-0.0042702,0.0043647,0.022074,0.032079,0.023006,0.01894,0.014581,-0.032363,-0.040217,-0.050183,-0.060903,-0.057577,-0.051678,-0.052653,-0.047929,-0.039889,-0.038919,-0.025917,-0.024896,0.00024253,0.00024125,-0.0045423,0.021055,0.020083,-0.034381,-0.028272,0.014515,0.0069887,-0.0038742,-0.0014959,0.025131,0.032677,0.049586,0.059558,0.06135,0.06223,0.062912,0.053269,0.044635,0.036903,0.03344,0.038713,0.023578,0.02442,0.015685,0.0017916,-0.0242,-0.052471,-0.071944,-0.05865,-0.026822,0.012179,-0.018002,0.017828,0.064831,0.098644,0.087886,0.050151,0.0040115,-0.045143,-0.045924,-0.025552,-0.006886,0.024305,0.002229,-0.0034711,0.0049674,-0.0087406,-0.0021922,0.012841,0.026168,0.02916,0.028849,0.032641,0.0060973,-0.011464,-0.046604,-0.02635,0.028857,0.069395,0.090135,0.019773,-0.07002,-0.060491,-0.0093267,0.0083313,-0.0098077,-0.024828,-0.03408,-0.039759,-0.053467,-0.074408,-0.073207,-0.060077,-0.041962,-0.015353,-0.053761,-0.10972,-0.14851,-0.1211,-0.03257,0.068639,0.10379,0.11331,0.098127,0.060062,0.030012,0.0051107,-0.030595,-0.064814,0.057422,0.097061,0.0027983,-0.054323,-0.064458,-0.01338,0.041636,0.011743,0.0050294,0.019839,0.037911,0.053219,0.054267,0.065592,0.072404,0.066568,0.051017,0.035605,0.024083,0.0064988,0.025343,-0.0032179,-0.058093,-0.051005,0.0438,0.081853,0.03852,-0.018378,-0.027007,-0.018399,0.015865,-0.076514,0.11665,-0.035285,-0.0889,0.15708,-0.10257,-0.0030334,0.069239,-0.051837,0.0076279,-0.011385,-0.0073204,0.00034129,-0.0010641,-0.010761,0.00059503,-0.0053675,-0.0081918,0.0036643,-0.011972,0.0037021,0.011288,0.011486,0.011442,0.0011168,-0.011989,-0.017249,-0.043461,-0.069322,-0.032136,-0.0051989,0.01743,0.013027,-0.041961,-0.0052892,0.056433,-0.014872,-0.038912,-0.0020506,0.040378,0.006539,-0.048063,0.013727,-0.011697,-0.014836,-0.00068804,0.015127,0.015961,0.012955,0.0098207,0.0056992,0.00091132,0.0042377,0.01241,-0.046325,-0.055681,-0.06789,-0.084333,-0.091194,-0.087069,-0.072746,-0.062189,-0.055671,-0.046106,-0.022153,-0.078795,-0.078685,-0.07749,-0.05487,-0.020496,0.011116,0.032036,0.060026,0.086077,0.076011,0.067171,0.00063795,0.0029745,0.0024642,-0.008218,-0.0076538,-0.0015215,-0.0084903,-0.012123,-0.021187,-0.053916,-0.07741,0.0048464,0.0091984,0.0035569,-0.0051929,-0.0058601,0.006937,0.0026257,0.0071399,0.020633,0.020256,0.026777,-0.00094753,-0.0056683,-0.006296,-0.014375,-0.031771,-0.041467,-0.033537,-0.025505,-0.010782,-0.00143,-0.0011934,3.9204e-05,0.00022138,0.0052931,0.0052652,0.0002231,0.0028044,0.0043572,0.002606,-0.0024251,-4.2828e-06,0.0070757,-0.019164,-0.021207,-0.018143,-0.01667,0.00030355,0.014648,0.016231,0.011285,0.012252,0.011157,0.0083442,-0.016448,-0.0051592,0.00059306,0.0012336,-0.0096395,-0.030965,-0.011782,0.054792,0.11927,0.12384,0.07624,-0.00501,-0.0052245,1.1693e-05,-0.0037387,-0.0016488,-0.0045017,-0.0087287,-0.0073436,-0.0062215,-0.014288,-0.0040094,0.0044126,0.0011047,0.00032161,0.0021182,-0.0043434,-0.0032558,0.00066846,0.0016299,-0.0065919,-0.0063285,-0.0052298,-0.12655,-0.10278,-0.041312,0.013742,0.045937,0.03663,0.040028,0.046008,0.032965,0.033733,0.048453,-0.0026492,0.0065743,0.0016474,0.0039403,0.012492,0.032181,0.043791,0.050953,0.04899,0.037739,0.025018,0.028457,0.037147,0.038005,0.035348,0.034576,0.032239,0.025883,0.029638,0.03016,0.028887,0.033554,0.0018541,0.0011153,0.0025771,0.0081585,0.006591,0.0028421,-0.0015084,-0.0046128,-0.0051068,-0.0092524,-0.0145,0.028459,0.033875,0.033427,0.03601,0.034023,0.035799,0.038749,0.039511,0.037458,0.035112,0.047431,-0.019252,-0.025107,-0.038618,-0.044415,-0.0599,-0.069689,-0.068836,-0.066767,-0.051741,-0.034297,-0.025448,0.019022,-0.00083565,0.00051443,-0.0046099,-0.0086694,-0.0055719,-0.0035735,-0.0048914,0.00051581,0.0020605,0.0053647,-0.0081638,-0.011098,-0.017545,-0.024121,-0.027791,-0.028656,-0.037574,-0.040574,-0.038397,-0.040896,-0.032692,0.00049495,-0.0058176,-0.0051609,-0.0046141,5.5227e-05,-0.0071875,0.0057922,0.018488,0.020475,0.011807,0.0029864,0.017256,0.017075,0.012023,0.0051139,0.007645,0.028044,0.027128,0.017318,0.010882,0.0075962,0.019468,-0.001761,0.0037802,-0.001463,-0.0015228,-0.0032911,-0.0042765,-0.0078921,-0.0045209,-0.002958,0.0023842,-0.0074739,-0.0032885,-0.0023641,-0.0013389,-0.0028487,-0.0074193,0.0014911,0.0046397,0.0075956,0.01253,0.017247,0.0075943,0.021553,0.021313,0.021891,0.0192,0.011341,0.0078422,0.0095738,0.013497,0.015667,0.017317,0.030823,0.032556,0.0090486,-0.014488,-0.032405,-0.04775,-0.069211,-0.079455,-0.093502,-0.089268,-0.078086,-0.07432,-0.0054613,-0.006043,-0.0065032,-0.012566,-0.0093164,-0.0088083,-0.010335,-0.0077028,-0.0080908,9.1958e-05,-0.016963,-0.039913,-0.020778,-0.015387,0.0073821,0.031625,0.05635,0.077849,0.10529,0.10836,0.10336,0.11573,0.10759,0.1009,0.11272,0.11083,0.11096,0.10429,0.096252,0.078608,0.059443,0.037716,0.01741,-0.10361,-0.12008,-0.12974,-0.12445,-0.10337,-0.085859,-0.062359,-0.040644,-0.018234,-0.0038037,0.016852,-0.027451,-0.027271,-0.023351,-0.012849,-0.0086106,-0.0044432,-0.0003539,0.01287,0.0098921,0.0017781,0.0093885,0.051218,0.032992,0.022197,0.013501,0.012459,0.0053822,0.013812,0.020904,0.02131,0.020502,0.026615,0.063927,0.046832,0.041692,0.036189,0.032463,0.021583,0.017381,0.0051361,-0.014046,-0.028879,-0.054857,-0.046774,-0.075005,-0.10274,-0.09428,-0.058452,-0.0031083,0.051088,0.079272,0.097261,0.08255,0.056537,-0.035687,-0.029741,-0.022251,-0.026459,-0.031691,-0.035941,-0.042507,-0.037215,-0.029229,-0.018783,-0.013775,-0.0029273,-0.006751,-0.0012443,0.0031881,0.005797,0.0070559,0.0091566,0.014308,0.019176,0.018533,0.026188,0.032794,0.029593,0.036001,0.042301,0.051473,0.05188,0.051865,0.049531,0.049846,0.040887,0.044985,0.052948,0.026336,0.029588,0.013522,0.0043388,0.0048981,-0.0051482,-0.016773,-0.026016,-0.04237,-0.071523,0.023856,0.0043267,0.071753,0.0051492,-0.10772,0.023468,0.025884,-0.04715,0.010034,0.0067202,0.0040227,0.012766,0.0080778,0.010048,0.011146,0.014335,0.011459,0.006533,-0.00068237,0.001274,-0.0022024,0.0034464,-0.0047771,-0.0018408,-0.0063253,-0.0092753,-0.01444,-0.014269,-0.01283,-0.014551,-0.0090783,-0.0078433,-0.010499,-0.042754,-0.046736,-0.040911,-0.039159,-0.035242,-0.027906,-0.024373,-0.021416,-0.02064,-0.020719,-0.017199,0.0053324,-0.018469,-0.029956,-0.046566,-0.046326,-0.046906,-0.040179,-0.015933,0.0046057,0.019011,0.034302,-0.03529,-0.029934,-0.019907,-0.018795,-0.021486,-0.035861,-0.054257,-0.051383,-0.026239,-0.026113,-0.026379,-0.026909,-0.021744,-0.025628,-0.027955,-0.031941,-0.037065,-0.031775,-0.036415,-0.042578,-0.040917,-0.039109,-0.00041829,0.0015965,-0.00311,-0.00079968,-0.0090906,-0.0082388,-0.00034122,0.011623,0.0036916,0.00053106,-0.0030132,0.0045767,0.020569,0.029701,0.039263,0.043399,0.04496,0.042694,0.035738,0.030507,0.019872,0.01254,-0.0095685,0.0012053,0.016355,0.0085916,-0.010148,-0.022149,-0.015171,-0.0062974,0.00059476,0.0044233,0.0043381,0.051787,0.047061,0.046043,0.032748,0.019832,0.0048831,-0.006561,-0.011197,-0.028958,-0.028737,-0.02469,-0.065497,-0.099435,-0.10367,-0.074931,-0.03917,-0.0088147,0.010054,0.010339,0.0047837,0.0061455,0.0046439,-0.059731,-0.041462,-0.036281,-0.02103,-0.014042,-0.0052381,0.0032729,0.029158,0.044496,0.055666,0.079676,0.0041702,0.030074,-0.02171,-0.01225,0.020287,-0.0088686,-0.0062749,0.0097866,-0.0012115,-0.0014604,0.00010781,0.0036232,-0.0034564,-0.0039599,-0.0039988,-0.00060256,-0.0021198,0.0046363,0.0021382,0.0022202,-0.0064709,-0.012277,-0.054493,-0.056526,-0.057441,-0.047761,-0.041699,-0.028555,-0.022152,-0.0066858,0.00088044,-0.00038,0.0026352,0.01095,0.014693,0.03053,0.040821,0.049875,0.042149,0.034218,0.029814,0.015754,0.00047819,0.0005138
0.0067056,0.012727,-0.027801,-0.043115,0.015051,0.072433,0.026462,-0.023167,-0.01387,0.0054814,-0.005211,-0.010593,-0.086438,-0.064861,0.072522,0.17788,0.087806,-0.090318,-0.09196,-0.026616,0.015535,0.013772,-0.070082,-0.049427,-0.042011,-0.05067,-0.039829,-0.038681,-0.029632,-0.0055702,0.00046744,-0.0098676,0.0039831,0.010194,0.026023,0.047069,0.081912,0.094806,0.094905,0.088288,0.075242,0.069889,0.051638,0.049641,0.012211,-0.01803,-0.038078,-0.062639,-0.055193,0.0012556,0.034661,0.046987,0.052598,0.042443,0.035378,0.003064,0.04911,-0.028407,-0.0884,-0.0079153,0.036026,0.059177,0.063311,-0.083486,-0.067943,0.050645,0.070548,0.039036,0.034432,0.028736,0.020057,0.0043365,-0.0042864,-0.013766,-0.028096,-0.041453,-0.053731,-0.047254,-0.059988,-0.079205,-0.078997,-0.056286,-0.03121,-0.0043966,0.034702,0.061151,0.05983,0.077767,0.030184,0.010949,0.0058936,-0.0045337,-0.0098578,-0.019844,-0.028315,-0.03209,-0.036637,-0.040696,-0.051896,-0.00066021,0.016836,-0.045877,-0.028871,0.081043,0.001161,-0.054728,0.012376,0.0025903,-0.012829,-0.00077018,-0.0096106,-0.012751,-0.010519,-0.0067222,-0.0085847,-0.0097324,-0.012474,-0.0084207,-0.0074201,-0.010698,-0.0009916,0.032229,0.01432,-0.028938,-0.091867,-0.13943,-0.13829,-0.070621,0.025345,0.086066,0.099731,0.062351,-0.047289,0.0010432,0.045195,0.031725,0.015825,-0.059497,-0.068042,0.038398,0.042696,-0.0068811,-0.0007461,-0.026523,0.033435,-0.0057145,-0.031803,0.0808,-0.080298,-0.097119,0.23788,-0.031861,-0.17767,0.11837,-0.015762,0.0087466,0.029076,0.04499,0.03715,0.029738,-0.0018133,-0.027449,-0.024327,-0.0035695,0.0030877,0.0070239,0.016248,0.017029,0.017306,0.023467,0.015696,0.012535,0.013222,0.0044612,0.00072029,-0.0076206,-0.0078704,-0.013311,-0.011284,0.0013689,-0.0064213,-0.013013,-0.022285,-0.017473,-0.018469,-0.012082,-0.0085769,0.022309,0.040722,-0.0055775,-0.039773,-0.046782,-0.047361,0.0077931,0.030531,0.032259,0.026649,0.013598,0.00061166,-0.049511,-0.10705,-0.15413,-0.10973,0.044631,0.17669,0.17147,0.084985,0.016173,-0.0039024,-0.0033883,-0.018959,-0.019822,0.0053216,0.0284,0.046954,0.050334,0.040066,0.028174,0.013981,0.0043814,0.0013738,0.064069,-0.13332,0.083806,0.054169,-0.13547,0.07259,0.05028,-0.077363,0.024083,0.011036,0.019971,0.034067,0.053524,0.092039,0.12216,0.12542,0.11467,0.10559,0.086821,0.055024,0.030988,-0.021863,-0.020157,0.047828,0.062068,-0.020861,-0.056305,-0.0004208,0.037982,-0.015489,0.013999,0.00027417,0.023919,-0.10452,-0.094655,0.077046,0.20012,0.14614,-0.057432,-0.14012,-0.04552,0.028913,-0.0047111,-0.00018106,-0.0051981,-0.0020524,0.0022858,-0.0008521,-0.008795,-0.0011951,0.0011454,0.002824,-0.00019467,0.013578,-0.018714,-0.034818,-0.026759,-0.025423,0.01562,0.029251,0.022407,0.021992,0.025326,0.0018973,-0.055116,-0.0345,-0.042887,-0.053169,-0.051088,-0.047024,-0.040211,-0.038711,-0.031805,-0.023495,-0.0063858,-0.0077088,-0.0084101,-0.00065149,-0.008194,0.012528,0.055858,0.00046049,-0.071519,-0.0056217,0.032966,0.005489,0.001809,0.0010609,0.0028158,0.012841,0.030696,0.041307,0.039309,0.04471,0.04617,0.031202,0.019544,0.016842,0.055016,0.052412,0.050242,0.038811,0.011174,-0.010416,-0.040338,-0.069086,-0.078951,-0.048781,-0.00060817,0.0271,0.083515,0.12695,0.11486,0.048088,-0.023682,-0.076084,-0.090759,-0.059439,-0.022113,-0.0048413,0.066814,0.077452,0.12278,0.149,0.15413,0.15273,0.14396,0.12066,0.087498,0.049753,0.040247,0.016076,-0.012607,-0.068834,-0.051945,0.018106,0.082796,0.12852,0.051403,-0.078994,-0.088154,-0.018526,0.010829,-0.0060612,-0.014924,-0.023158,-0.040902,-0.059469,-0.080336,-0.088883,-0.08494,-0.067095,-0.05304,-0.079978,-0.12494,-0.12158,-0.070081,-0.0078502,0.054868,0.079515,0.09917,0.087449,0.057944,0.029738,0.010967,-0.039617,-0.10195,0.058923,0.12699,0.020535,-0.070124,-0.11003,-0.019306,0.071412,0.00292,-0.055187,-0.056577,-0.046237,-0.037496,-0.043238,-0.038367,-0.030354,-0.02207,-0.013849,-0.013275,-0.018444,0.02041,-0.0045635,-0.047089,-0.035589,0.069215,0.1336,0.04687,-0.071515,-0.081523,-0.045465,0.019118,0.025734,-0.12301,0.15917,-0.032026,-0.16519,0.21933,-0.1016,-0.056337,0.10955,-0.079005,0.012905,-0.0060508,-0.0079932,0.0022164,-0.0059115,-0.014725,0.0053238,-0.00017442,-0.006423,0.00078454,-0.011677,-0.0026947,0.011629,0.019292,0.043843,0.039553,0.022201,0.012877,-0.0094274,-0.051442,-0.066263,-0.054949,-0.026238,-0.030727,-0.010607,0.079845,-0.0087837,-0.062704,0.00038458,0.03096,0.044542,-0.043317,-0.024274,0.035077,0.010571,-0.0012421,0.00051529,0.012921,0.013491,0.0070547,0.0048685,0.00066155,-0.0066364,-0.0037689,0.0088631,-0.033005,-0.047336,-0.061263,-0.070936,-0.068827,-0.060249,-0.051834,-0.038444,-0.035184,-0.030579,-0.0020345,-0.11397,-0.10711,-0.10752,-0.079,-0.033402,0.008595,0.047573,0.086113,0.11481,0.12159,0.10761,0.012088,0.00039842,0.00058377,0.0002541,-0.0032282,-0.005394,-0.007941,-0.0057042,-0.013233,-0.053932,-0.086598,0.013391,0.0081551,0.0062984,0.0044734,-0.0010617,0.0032139,0.0014859,0.0093134,0.02138,0.023688,0.030244,-0.0019759,-0.0016076,0.014329,0.033363,0.04663,0.062334,0.061095,0.043717,0.02041,0.0079004,-0.0014143,-0.0067476,-0.001193,0.0055434,-0.0030971,0.0014596,0.0023944,0.0011765,-0.00025996,0.0018318,0.004171,0.0029202,-0.014508,-0.012486,0.0010552,0.007543,0.019184,0.020404,0.0088166,0.014193,0.0097275,0.011405,0.0033494,-0.0070532,0.0078876,0.024401,0.0062326,-0.044612,-0.10098,-0.12365,-0.051773,0.049179,0.11276,0.093235,0.004603,0.0019261,0.0064625,-0.0015662,0.002656,0.0018314,-0.0070129,-0.0097906,-0.0027925,-0.0093988,-0.011779,-0.0037957,0.0048432,0.0016144,-0.0097935,-0.015198,-0.0021162,-0.0015608,-0.0061144,-0.0078357,-0.00082699,-0.0026654,-0.025464,0.050901,0.11003,0.12842,0.11687,0.084524,0.054872,0.016055,-0.028363,-0.041815,-0.0022427,-0.0088639,-0.0089041,-0.016499,-0.017905,-0.012835,0.0072565,0.019459,0.029828,0.038731,0.031644,0.024077,0.027934,0.035113,0.038947,0.032908,0.030456,0.028984,0.026847,0.025442,0.026164,0.025702,0.031487,0.012955,0.0084144,0.013317,0.018624,0.024843,0.020502,0.013838,0.0042529,-0.0030165,-0.0041461,-0.010949,0.036098,0.03537,0.040974,0.043668,0.044436,0.042698,0.047134,0.042562,0.034858,0.041321,0.058353,-0.027291,-0.039203,-0.057104,-0.067696,-0.079773,-0.093451,-0.093702,-0.082998,-0.066064,-0.049565,-0.039549,0.017581,0.0089348,0.0090568,-0.0029637,-0.0053862,-0.005362,-0.0019384,-0.0035462,-0.0041986,-0.00078726,0.012491,-0.001671,-0.0045732,-0.01325,-0.014894,-0.024061,-0.027617,-0.032053,-0.037895,-0.034026,-0.036957,-0.032735,0.0014777,-0.0057434,0.0038087,0.0074077,0.0023213,0.020165,0.042456,0.02413,0.00041577,-0.0095154,-0.01121,0.029714,0.017614,0.017096,-0.0033284,-0.0071144,0.0069222,0.017164,0.0045757,0.00036028,0.0047969,0.017136,-0.0033731,-0.00082905,0.0029979,-0.0011501,-0.00030581,-0.0059577,-0.0057131,-0.010752,-0.0076444,-0.0030441,-0.0070398,0.0014976,-0.0019949,-0.0057096,-0.0022563,-0.0038075,0.0048081,0.0068006,0.0042263,0.0089639,0.015495,0.0024771,0.019797,0.022408,0.02397,0.016253,0.0026307,0.0012988,0.0051656,0.0099006,0.016012,0.01574,0.026863,0.048123,0.036649,0.017565,-0.0063341,-0.025258,-0.051543,-0.077618,-0.10083,-0.10371,-0.092283,-0.093487,-0.0047361,-0.016917,-0.018008,-0.010313,-0.012619,-0.012073,-0.012597,-0.014836,-0.0087499,-0.015964,-0.0075135,-0.050833,-0.038009,-0.036404,-0.015417,0.011873,0.046727,0.081056,0.11915,0.12576,0.12774,0.12711,0.11722,0.11312,0.11922,0.11837,0.1132,0.10219,0.087996,0.067684,0.039767,0.011648,-0.011908,-0.10667,-0.1252,-0.13555,-0.12878,-0.10792,-0.078754,-0.052755,-0.031225,-0.0046669,0.013263,0.026534,-0.035071,-0.025975,-0.026805,-0.015643,-0.013287,-0.0025206,0.003574,0.0080907,0.0098929,0.0095435,0.009888,0.0193,0.015538,0.010057,-0.0033387,8.3488e-05,-0.0031124,0.0039013,0.0086971,0.0098525,0.010434,0.011559,0.063299,0.050698,0.053747,0.043062,0.02685,0.023168,0.028346,0.020393,0.003669,-0.011627,-0.037553,-0.05726,-0.088167,-0.10851,-0.095028,-0.050495,0.0074628,0.061954,0.10236,0.11653,0.096012,0.064896,-0.032178,-0.02605,-0.02069,-0.032264,-0.029379,-0.034283,-0.03839,-0.029175,-0.021384,-0.014756,-0.014386,0.0022073,-0.0028054,-0.0079319,0.0012847,0.0081819,0.0066239,0.010514,0.01296,0.013078,0.021065,0.035152,0.025126,0.024622,0.040611,0.046485,0.055594,0.061122,0.057491,0.059244,0.048969,0.042625,0.037078,0.067611,0.047728,0.048154,0.023519,0.0066679,-0.0025088,-0.013824,-0.023954,-0.040338,-0.047318,-0.075167,0.0021188,-0.0031702,-0.048905,-0.10199,0.074873,0.055966,-0.057828,0.045807,0.032334,-0.0078281,0.015932,0.015718,0.0092594,0.0041684,0.0058786,0.015597,0.01824,0.011206,0.0055853,0.0053805,-0.0017562,0.0013461,-0.0095686,-0.011478,-0.01552,-0.027732,-0.025595,-0.030763,-0.030909,-0.02745,-0.02023,-0.015703,-0.019839,-0.046813,-0.051921,-0.05479,-0.047842,-0.039694,-0.033572,-0.027591,-0.018324,-0.018228,-0.018209,-0.017494,-0.012503,-0.040616,-0.057726,-0.075204,-0.091637,-0.088734,-0.078444,-0.042124,-0.012399,0.0026538,0.032495,-0.039134,-0.027368,-0.01335,-0.015704,-0.017391,-0.026162,-0.040912,-0.03797,-0.017477,-0.016655,-0.022457,-0.023732,-0.020429,-0.02434,-0.023596,-0.024792,-0.028886,-0.021731,-0.028709,-0.032433,-0.028863,-0.024807,-0.0053977,-0.0081779,-0.017138,-0.020283,-0.018779,-0.010941,-0.0023947,0.00677,0.0010637,-0.0058432,-0.0074899,0.0077663,0.014693,0.033567,0.04241,0.054397,0.059267,0.056677,0.048114,0.037912,0.030899,0.01891,-0.011493,0.012204,0.030211,0.031575,0.0047912,-0.013408,-0.029417,-0.025762,-0.012242,-0.0004859,0.0070175,0.074335,0.065198,0.06298,0.049718,0.035327,0.014732,-0.0011415,-0.011874,-0.024877,-0.031248,-0.03249,-0.0311,-0.030265,-0.0063796,0.012446,0.024934,0.022321,0.01468,0.0054783,0.0010783,0.0025245,0.00075242,-0.06521,-0.050574,-0.048358,-0.036879,-0.014378,-0.003472,0.01622,0.038474,0.061352,0.074806,0.090004,-0.0028732,-0.060071,-0.023548,0.049856,-0.0079419,0.00062093,0.032654,0.0018344,0.00013694,0.0045463,-0.005755,-0.0053187,-0.009571,-0.0031615,-0.0030382,-0.00022256,-0.0033363,0.0060503,-0.0023974,-0.0041114,-0.010864,-0.015355,-0.051139,-0.059349,-0.065541,-0.055762,-0.040246,-0.027483,-0.0074848,0.0084976,0.014823,0.0088742,0.0078166,0.017595,0.019039,0.03376,0.03957,0.039272,0.034933,0.032088,0.021339,0.017193,0.0042131,-0.0040382
0.0013365,0.02709,-0.034367,-0.075211,-0.029808,0.064245,0.066694,-0.0029699,-0.036713,-0.012383,-0.0082502,-0.051046,-0.086887,-0.0050137,0.15814,0.18418,-0.018561,-0.16718,-0.07311,0.024477,0.02759,0.00095541,-0.067657,-0.037469,-0.039921,-0.041004,-0.028027,-0.014801,-0.012032,0.01115,0.021879,0.0036147,0.02054,0.0073446,0.024117,0.044334,0.069177,0.068639,0.068876,0.074945,0.064142,0.049956,0.034883,0.040366,0.03063,-0.01166,-0.052553,-0.10647,-0.11693,-0.061002,0.0012919,0.03783,0.05627,0.053427,0.059704,0.017775,0.067633,-0.046528,-0.10984,0.019333,0.073962,0.082277,0.05334,-0.11787,-0.061726,0.070739,0.071796,0.045499,0.038027,0.016287,0.009863,-0.0010766,-0.0077761,-0.021934,-0.035734,-0.04679,-0.064932,-0.080484,-0.057073,-0.039146,-0.02502,0.0043969,0.044994,0.077685,0.08603,0.077404,0.04654,0.044037,0.038417,0.020529,0.024507,0.022589,0.021604,0.010992,-0.0052242,-0.0099818,-0.024932,-0.02939,-0.047627,-0.025452,0.021217,0.092478,-0.05099,-0.10939,0.06733,0.024107,-0.018041,0.027123,0.0084557,-0.011025,-0.0089406,-0.010926,-0.010327,-0.011731,-0.011177,-0.0089428,-0.010276,-0.011898,-0.0099807,-0.0080735,0.0089381,-0.056926,-0.072259,-0.069793,-0.017392,0.0557,0.13929,0.16952,0.1512,0.060765,-0.019501,-0.063663,-0.053752,0.019359,0.060566,0.028103,-0.011745,-0.073284,-0.048348,0.059884,0.043173,-0.01251,-0.0093222,-0.0059834,-0.0074082,0.033344,-0.039175,0.034492,0.06576,-0.17662,0.041548,0.18297,-0.15504,0.01947,-0.02629,-0.01772,-0.00035647,0.03137,0.036185,0.043193,0.027313,-0.0052409,-0.032888,-0.022958,-0.012107,0.024981,0.03299,0.039203,0.046006,0.046341,0.041845,0.033333,0.030094,0.016699,0.011835,-0.0031983,0.012313,0.01983,0.0065568,-0.020091,-0.035041,-0.033901,-0.024783,-0.010776,0.0091023,0.014922,0.0104,0.010201,0.049439,0.016985,-0.026366,-0.055788,-0.068278,-0.00010453,0.028987,0.027463,0.025072,0.011158,0.064365,0.074659,0.056571,-0.023866,-0.15565,-0.2176,-0.1369,0.0040328,0.084042,0.068633,0.04689,-0.020865,-0.02379,0.0038198,0.029194,0.041824,0.056422,0.035789,0.010917,-0.016871,-0.029436,-0.023214,0.034882,-0.027538,-0.079219,0.14163,-0.060703,-0.094908,0.12685,-0.0055838,-0.090492,0.061699,-0.012005,-0.016982,-0.020774,-0.040141,-0.065569,-0.080106,-0.098869,-0.11393,-0.097444,-0.088524,-0.053374,-0.036105,-0.011934,-0.064147,0.019232,0.11669,-0.00017461,-0.089885,-0.028929,0.047502,-0.0090576,-0.0067469,0.0049819,0.061446,0.063849,-0.13752,-0.21564,-0.087506,0.13712,0.21049,0.075235,-0.059388,-0.048984,0.013119,0.0037828,-0.0058906,-0.0020318,0.00019899,-0.0046469,-0.009137,-0.0064105,0.0015256,0.0014888,-0.0018454,0.010144,-0.027687,-0.036035,-0.027322,-0.021414,0.022973,0.032936,0.02078,0.013532,0.030035,-0.0041697,-0.062615,-0.038185,-0.039308,-0.044684,-0.046052,-0.043571,-0.025679,-0.019662,-0.01112,-0.0059902,0.0031725,0.0073015,-0.011753,-0.017161,-0.017466,-0.0013536,0.058321,0.073084,-0.064175,-0.082989,0.025154,0.032457,-0.00086403,-0.017239,-0.0067511,-0.0048491,0.005723,0.0092549,0.010988,0.021212,0.03132,0.026512,0.019391,0.0080333,0.046542,0.064647,0.066949,0.058909,0.03551,0.0075512,-0.026449,-0.062767,-0.090992,-0.079972,-0.039837,0.071696,0.11667,0.11179,0.047675,-0.058211,-0.12805,-0.14494,-0.11465,-0.036433,-0.0071747,0.00055875,0.049306,0.065168,0.09877,0.11342,0.11471,0.10844,0.10117,0.082786,0.06023,0.03123,0.015135,0.035251,-0.010502,-0.081821,-0.067034,-0.00047227,0.072158,0.16096,0.096769,-0.082008,-0.11279,-0.019804,0.014043,-0.0015313,-0.0006576,-0.010605,-0.035181,-0.056111,-0.075948,-0.086752,-0.096837,-0.091533,-0.080473,-0.077137,-0.098402,-0.07033,-0.014347,0.019212,0.033471,0.045392,0.061016,0.045006,0.010097,-0.0099773,0.028152,-0.031919,-0.11144,0.068504,0.15484,0.047822,-0.066543,-0.13719,-0.026897,0.10516,0.0027969,-0.048999,-0.063887,-0.079261,-0.078912,-0.087112,-0.081661,-0.082947,-0.077861,-0.068156,-0.050416,-0.035796,-0.0049646,-0.048531,-0.021178,0.082573,0.1378,0.018155,-0.15494,-0.1657,-0.047376,0.045358,0.070023,0.048628,-0.15828,0.16742,0.021462,-0.22886,0.24752,-0.062289,-0.09883,0.13395,-0.084567,0.021896,-0.00029628,0.0032562,0.0098448,0.00026541,-0.0067474,0.015926,0.0093293,0.0031039,0.0030509,-0.001467,0.01285,-0.02474,-0.011793,0.020897,0.060257,0.080518,0.09066,0.065049,0.030354,-0.024389,-0.05628,-0.056662,-0.029122,0.059945,0.025739,-0.091029,-0.017892,0.024653,0.060482,-0.000799,-0.091216,0.013939,0.02464,0.027124,-0.002917,-0.010232,0.0010702,0.0065507,0.0045027,0.0083157,0.0041907,-0.0049144,-0.0029653,0.013564,0.045996,0.053006,0.071965,0.077522,0.082223,0.090292,0.0873,0.087564,0.081063,0.048716,0.067458,-0.12789,-0.12917,-0.13071,-0.10529,-0.052743,-0.0091554,0.036363,0.084096,0.12476,0.13546,0.12221,0.0065241,-0.0043808,-0.00076208,-0.0045465,-0.0084232,-0.0024963,0.0075701,0.002099,-0.021169,-0.062193,-0.099063,0.017161,0.0055444,0.0046721,0.0063452,-0.0027307,-0.0063488,-0.0012332,0.0068377,0.0070253,0.010742,0.019205,0.0078387,-0.0054486,-0.037637,-0.072904,-0.087659,-0.10378,-0.097244,-0.06567,-0.032144,-0.0087815,-0.0095623,-0.0027969,-0.0067172,-0.00057037,-0.0086041,0.00024129,-0.0036812,0.0015144,-0.0011203,-0.002804,0.0018005,0.0026555,-0.019647,-0.0083083,0.0040884,0.0029901,0.0025682,-0.00029499,0.0068518,0.0083635,0.012554,-0.00077235,-0.0031253,0.013429,0.035806,0.060247,0.042022,-0.036717,-0.15833,-0.24303,-0.19727,-0.061611,0.046952,0.067847,0.0041428,0.0036962,0.0081788,0.0086249,0.005781,0.008262,0.0098927,0.0025815,-0.0051171,-0.0056851,0.0015147,-0.0048855,-0.0064266,-0.013577,-0.011709,0.0090292,0.011184,-0.0071946,-0.015939,-0.00024624,0.0016031,-0.0086606,0.083402,0.18883,0.19333,0.12887,0.066363,0.0015389,-0.039246,-0.074151,-0.10531,-0.10632,-0.043674,-0.014659,-0.015889,-0.024917,-0.028969,-0.032509,-0.015079,-0.0073531,0.01255,0.012249,0.020166,0.020922,0.034726,0.030226,0.032852,0.025858,0.020135,0.014754,0.0033415,5.1015e-05,0.0071724,0.0060267,0.023294,0.014058,0.022872,0.029607,0.038215,0.044906,0.041256,0.028696,0.014107,0.0010434,-0.0037782,-0.012097,0.052195,0.040124,0.046877,0.042937,0.051905,0.048176,0.045914,0.04582,0.040211,0.040417,0.056034,-0.028179,-0.045928,-0.06439,-0.075075,-0.089207,-0.095026,-0.09137,-0.079875,-0.0671,-0.05313,-0.045621,0.024317,0.0066876,0.0070833,0.0061925,0.0017698,0.00044857,-0.0049476,-0.014967,-0.016639,-0.0048456,0.011268,0.0032078,0.0014729,-0.0036192,-0.012394,-0.013705,-0.022773,-0.028685,-0.029801,-0.030094,-0.03167,-0.026839,0.01495,0.00036916,0.0068988,0.020801,0.031524,0.043357,0.0016255,-0.039685,-0.028425,-0.019145,-0.012558,0.041225,0.021181,0.012154,-0.0082533,-0.034746,-0.042149,-0.053832,-0.047352,-0.024214,-0.00036704,0.02832,-0.0073636,0.0055099,0.007921,0.010903,0.0081721,0.0036575,-0.0038182,-0.011468,-0.013382,-0.0066918,-0.0089852,-0.010027,0.00061722,3.6422e-05,0.0020392,-0.0025363,0.0097501,0.013618,0.0091897,0.0054416,0.013804,-0.0021282,0.020554,0.016638,0.020914,-0.0026082,-0.015507,-0.025448,-0.015885,-0.0041969,0.0070686,0.013365,0.022793,0.074442,0.066,0.054618,0.037394,0.012875,-0.023975,-0.055713,-0.087375,-0.098003,-0.09533,-0.092351,-0.013676,-0.02881,-0.025706,-0.012847,-0.016191,-0.01556,-0.010361,-0.0062374,-0.0016156,-0.010959,0.0052836,-0.080819,-0.065463,-0.058199,-0.040706,-0.0058406,0.034361,0.077276,0.11476,0.12543,0.12805,0.12856,0.11304,0.10991,0.11352,0.11081,0.10028,0.087957,0.068372,0.041986,0.0080177,-0.01797,-0.040037,-0.092438,-0.10958,-0.11793,-0.11007,-0.086629,-0.055615,-0.032371,-0.0054609,0.018271,0.032814,0.04143,-0.032093,-0.021976,-0.024515,-0.011329,-0.0059208,0.0015344,0.0029658,0.010794,0.021595,0.018793,0.013013,-0.0013406,0.00024155,-0.0056423,-0.0092994,-0.0037484,-0.0088471,-0.0032261,-0.005229,-0.0032946,-0.0039478,-0.013024,0.071195,0.060716,0.060313,0.049587,0.037913,0.026838,0.031354,0.025993,0.013726,-0.002226,-0.024789,-0.048396,-0.059154,-0.072807,-0.060853,-0.02348,0.01961,0.058501,0.09582,0.10617,0.088173,0.06057,-0.029809,-0.023898,-0.022909,-0.024686,-0.023561,-0.02912,-0.03566,-0.031617,-0.023184,-0.018957,-0.012368,0.0023238,-0.0014143,-0.0059721,0.0043146,0.011706,0.0049214,0.0081038,0.015012,0.018959,0.020696,0.038662,0.025212,0.026154,0.036286,0.047867,0.057066,0.06011,0.066101,0.064434,0.054479,0.039307,0.031674,0.092511,0.061102,0.049419,0.03381,0.013324,-0.0055904,-0.022791,-0.039037,-0.055819,-0.060017,-0.086916,-0.058012,0.014998,-0.0043561,0.11658,0.051076,-0.11235,0.028981,0.035432,-0.045229,0.0015686,0.0029618,0.013412,0.0042238,-0.0044558,-0.012218,-0.0079822,0.0088105,0.0086217,0.0077687,0.0064559,0.0063049,0.00054843,-0.021979,-0.022131,-0.033013,-0.04135,-0.048524,-0.047259,-0.040933,-0.036157,-0.027908,-0.02211,-0.019184,-0.046818,-0.0521,-0.049634,-0.044392,-0.036345,-0.01847,-0.0089909,-0.0012078,0.0014475,-0.003639,-0.0053361,-0.014111,-0.060053,-0.092602,-0.12674,-0.14892,-0.14103,-0.11214,-0.074086,-0.033723,-0.011546,0.014584,-0.038884,-0.023463,-0.017528,-0.021269,-0.020899,-0.029206,-0.038492,-0.031488,-0.013486,-0.014465,-0.01797,-0.022174,-0.017759,-0.023174,-0.027166,-0.027897,-0.025442,-0.02337,-0.025281,-0.027862,-0.024998,-0.021796,-0.021504,-0.029835,-0.038613,-0.033839,-0.022666,-0.0017398,0.0073644,0.017381,0.0061841,-0.0027999,-0.010127,-0.0031148,0.012346,0.02326,0.032391,0.040245,0.046776,0.048894,0.050866,0.040315,0.030107,0.019611,-0.016663,0.013849,0.056578,0.073996,0.047625,0.0061747,-0.024205,-0.036493,-0.030883,-0.0073896,-0.0041301,0.092324,0.077613,0.074194,0.062532,0.051247,0.031116,0.0082212,-0.010525,-0.015585,-0.020943,-0.027841,0.013689,0.039613,0.059835,0.058006,0.055159,0.039932,0.018693,0.0036235,0.0049855,0.0014458,0.0012797,-0.073624,-0.06455,-0.058235,-0.049552,-0.030187,-0.0046732,0.030893,0.054134,0.074473,0.091574,0.10339,-0.019362,0.038298,0.087209,-0.018723,-0.020215,0.030508,-0.028918,-0.026056,-0.005892,-0.015815,-0.0034839,-0.0057316,-0.0045698,-0.00054183,0.0024382,0.0070802,0.0075241,0.01019,0.0001387,-0.00081365,-0.011749,-0.015714,-0.04466,-0.0465,-0.048202,-0.042576,-0.028135,-0.011697,0.01887,0.026343,0.033358,0.029576,0.019651,0.0083023,0.014126,0.028378,0.03622,0.030612,0.029388,0.02549,0.025826,0.018961,0.014472,0.0063399
0.00015099,0.057742,0.0072998,-0.10146,-0.090758,0.027567,0.098887,0.043815,-0.021257,-0.019836,-0.00037099,-0.065853,-0.05291,0.070482,0.19644,0.10981,-0.1247,-0.16064,-0.0042589,0.048661,0.010787,-0.0056481,-0.060124,-0.021707,-0.027867,-0.032373,-0.015502,0.001266,0.0073383,0.023213,0.036668,0.023231,0.029408,-0.002128,0.015927,0.016843,0.021801,0.02405,0.038964,0.050771,0.036133,0.023267,0.0094338,0.02814,0.063859,0.029861,-0.021601,-0.11331,-0.18136,-0.16264,-0.091869,-0.029675,0.028548,0.055016,0.06752,0.034255,0.074719,-0.087603,-0.13034,0.034594,0.09186,0.086223,0.029155,-0.13464,-0.055349,0.078014,0.089293,0.052214,0.048286,0.021861,0.013062,0.0006001,-0.01177,-0.024069,-0.03705,-0.040981,-0.062446,-0.029165,-0.0020876,0.030799,0.063104,0.084849,0.10285,0.098392,0.066621,0.031493,-0.0012676,0.0039085,0.042903,0.030396,0.026169,0.039075,0.037818,0.031976,0.027537,0.012998,0.0056201,-0.0036452,-0.025549,0.01083,-0.098963,-0.019434,0.19068,0.040735,-0.10551,0.0024831,-0.027136,-0.032515,0.022638,0.008514,-0.010434,-0.0096719,-0.010586,-0.0095197,-0.0080143,-0.0053708,-0.0068076,-0.0069082,-0.008276,-0.0073386,0.0082308,0.0092023,0.052428,0.086847,0.11683,0.091653,0.029898,-0.059451,-0.13157,-0.13941,-0.094022,-0.016038,-0.053508,0.046846,0.069413,0.0066964,-0.04472,-0.077233,-0.013376,0.07484,0.034891,-0.029526,-0.014004,0.011907,-0.025341,0.0044074,0.00049061,-0.017631,0.091709,-0.059356,-0.11068,0.15854,-0.014861,-0.048422,-0.015796,-0.023217,-0.0048494,0.0021398,0.031565,0.052158,0.044615,0.014296,-0.020495,-0.023043,-0.015897,0.030796,0.025613,0.025232,0.039168,0.044701,0.037477,0.026267,0.019044,0.012504,0.010045,-0.010983,-0.035567,-0.064408,-0.074508,-0.067982,-0.029849,0.014245,0.045281,0.048215,0.031952,0.013876,0.00032337,0.0039929,0.044744,0.031947,0.0025436,-0.053512,-0.090344,-0.030648,0.01826,0.023182,0.020982,0.010256,-0.016992,0.02131,0.091658,0.1321,0.11472,0.017708,-0.11375,-0.1433,-0.089223,-0.016211,0.0073771,-0.0084587,0.012525,0.053471,0.071955,0.068675,0.054313,0.0087053,-0.045054,-0.058822,-0.03335,-0.0087961,0.02918,-0.067047,0.019336,0.088915,-0.11076,-0.026517,0.14346,-0.066494,-0.065865,0.095051,-0.036135,-0.017476,-0.017768,-0.030434,-0.032626,-0.030649,-0.022874,-0.012602,-0.00072615,0.001699,0.0054592,0.0027198,0.017195,-0.078227,-0.046867,0.13964,0.081675,-0.097271,-0.081321,0.050159,0.015392,-0.015042,0.0034078,-0.037132,0.11528,0.14979,-0.02303,-0.19097,-0.19609,-0.034106,0.11406,0.090313,0.0053668,-0.00018869,0.0089403,0.0039529,-0.0020656,-0.0051857,-0.0068221,-0.0016604,-0.0012331,-0.00017499,0.00076024,-0.0040243,0.0034585,-0.038057,-0.037814,-0.015914,-0.0018107,0.03056,0.022221,0.010425,0.01305,0.029716,-0.017569,-0.06396,-0.029136,-0.030921,-0.030293,-0.026135,-0.018282,-0.004718,0.0079433,0.011865,0.011237,0.013512,0.01885,0.0094278,-0.019989,-0.040196,-0.028697,0.03587,0.1417,0.029293,-0.12421,-0.053521,0.037644,0.027192,-0.044008,-0.026216,-0.03868,-0.033581,-0.039681,-0.038297,-0.033496,-0.019425,-0.0039944,0.012835,-0.0052751,0.026931,0.065839,0.077191,0.074643,0.055553,0.033614,-0.0058402,-0.046602,-0.08075,-0.081698,-0.067952,0.11201,0.11116,0.059865,-0.049166,-0.1446,-0.17358,-0.14278,-0.070869,0.0040696,0.024006,0.039114,-0.035206,-0.051053,-0.082111,-0.10638,-0.13555,-0.13835,-0.12375,-0.098997,-0.069121,-0.042502,-0.041518,0.049084,0.0044236,-0.086396,-0.082753,-0.021784,0.043093,0.16848,0.14947,-0.055114,-0.12986,-0.035045,0.019393,0.0024044,0.00089966,0.0030252,-0.011115,-0.036003,-0.056168,-0.073592,-0.090132,-0.087473,-0.078,-0.030371,-0.023478,0.0056394,0.03789,0.046313,0.047592,0.030718,0.0069304,-0.018786,-0.039942,-0.039041,0.029362,-0.029551,-0.11993,0.080211,0.15345,0.043065,-0.063944,-0.16783,-0.044244,0.12178,-0.0012909,0.010498,0.011718,0.0064168,-0.017782,-0.042228,-0.038521,-0.034494,-0.033647,-0.020708,-0.011674,-0.01514,-0.023213,-0.0049896,0.087835,0.10096,-0.038701,-0.19884,-0.19045,-0.024022,0.11789,0.12602,0.021219,0.071295,-0.17744,0.13139,0.09338,-0.26733,0.21618,-0.037656,-0.12108,0.15381,-0.090683,0.02122,-0.0064131,0.0095672,0.013143,-0.0060022,-0.0063695,0.013208,0.005804,-0.0051485,0.0065009,0.0082673,0.013805,-0.038469,-0.055601,-0.057891,-0.040391,0.022742,0.10375,0.1195,0.10063,0.053174,0.0066155,-0.035858,0.028393,0.062322,-0.087715,-0.043615,0.044097,0.061485,0.076256,-0.12992,-0.086836,0.092333,0.022725,0.030409,0.0046435,-0.012379,-0.0086369,-0.0054968,0.0077275,0.010191,0.004238,-5.8206e-05,0.0021185,0.013689,0.075143,0.088891,0.11718,0.12329,0.13844,0.14468,0.14025,0.12463,0.11275,0.076505,0.085873,-0.12261,-0.1258,-0.11879,-0.10078,-0.050795,-0.0004657,0.041748,0.087705,0.13578,0.14729,0.13588,0.0068652,0.0054643,0.0065506,0.006996,0.0046362,0.012851,0.024191,0.021584,-0.0055218,-0.044212,-0.083073,0.0093795,0.014137,0.01215,0.0056291,0.0060453,0.010519,0.014667,0.015976,0.0059375,0.0080481,0.016979,0.01342,0.04392,0.085048,0.12459,0.14375,0.14202,0.1066,0.061433,0.027906,0.015072,0.008678,-0.0015928,-0.0022982,-0.0020802,-8.412e-05,0.0026412,0.0059715,0.0041193,0.0010479,0.0031243,0.0020914,0.0046515,-0.016938,-0.0037771,0.010259,0.01059,0.0115,0.022569,0.025019,0.014289,0.0052306,-0.0038448,-0.0094023,0.021084,0.053577,0.089225,0.081727,0.00095898,-0.1376,-0.25136,-0.23977,-0.12124,-0.0017833,0.042796,0.005311,0.0032916,0.0064158,0.0086962,0.013762,0.0072709,0.0062134,0.0072362,0.0011028,-0.0092024,-0.0020315,0.0048817,-0.0029192,0.0016607,0.0046926,-0.00090642,-0.021204,-0.015751,-0.001251,0.0006439,-0.0022952,0.0024916,0.15282,0.20879,0.13483,-0.0054701,-0.10293,-0.14052,-0.11317,-0.061264,-0.069348,-0.053154,-0.0014712,-0.011371,-0.012576,-0.030212,-0.040976,-0.048533,-0.034685,-0.024661,-0.01435,-0.007566,-0.0033938,0.0042328,0.029996,0.02859,0.024741,0.014626,0.00064918,-0.016171,-0.026487,-0.026517,-0.02225,-0.010862,0.01057,0.020688,0.024026,0.04317,0.053001,0.058684,0.057233,0.042471,0.022675,0.012943,-0.0012811,-0.011523,0.048343,0.04,0.047712,0.04515,0.047586,0.039392,0.04429,0.04462,0.04192,0.045725,0.057271,-0.017023,-0.033446,-0.04942,-0.054547,-0.064236,-0.062589,-0.057482,-0.053303,-0.046098,-0.037783,-0.032397,0.024343,0.011408,0.011124,0.015061,0.012062,0.0049737,-0.0074303,-0.0227,-0.027479,-0.020282,-0.0033888,0.01531,0.0079786,0.0056265,0.00055584,-0.0072956,-0.0092403,-0.021529,-0.02776,-0.033622,-0.02852,-0.024664,0.01039,0.0049308,0.030674,0.029955,-0.0024801,-0.041582,-0.070833,-0.058886,-0.023568,-0.011257,0.0016037,0.042344,0.035114,0.017887,-0.016769,-0.058604,-0.11929,-0.16097,-0.13529,-0.071028,-0.0073601,0.030631,-0.011802,-0.00072225,0.01161,0.018162,0.025018,0.024408,0.0097188,-0.007104,-0.018901,-0.011907,-0.0079864,-0.008317,-0.0034338,-0.00098426,-0.00057906,0.0079465,0.011326,0.0092158,0.011022,0.010415,0.015899,-0.0036525,0.021678,0.013461,0.0018996,-0.025207,-0.053798,-0.065843,-0.053904,-0.023716,0.0029011,0.018578,0.022562,0.08983,0.077484,0.076898,0.063774,0.047053,0.017619,-0.032793,-0.065254,-0.080333,-0.084063,-0.09206,-0.017472,-0.01552,-0.0027458,-0.0074465,-0.021648,-0.017823,0.004875,0.0034061,-0.01487,-0.0059877,0.013583,-0.098984,-0.084113,-0.084184,-0.07397,-0.034385,0.0081432,0.047007,0.080999,0.10444,0.11686,0.12949,0.10253,0.095689,0.10019,0.089567,0.074699,0.056561,0.027889,-0.0032083,-0.042354,-0.061215,-0.07929,-0.069714,-0.078227,-0.080159,-0.065175,-0.04144,-0.0092948,0.010119,0.027259,0.046382,0.052903,0.057815,-0.028548,-0.021378,-0.019366,-0.013203,-0.0019829,0.0016789,0.0055254,0.016015,0.018473,0.01788,0.017542,-0.028714,-0.018372,-0.0081801,-0.015284,-0.0144,-0.016318,-0.014117,-0.01032,-0.0059504,-0.0057437,-0.014259,0.071274,0.062318,0.065699,0.053081,0.040003,0.033712,0.033681,0.02944,0.016544,0.010711,-0.012106,-0.024171,-0.020606,-0.019486,-0.0090432,0.0034837,0.026027,0.040242,0.06323,0.06998,0.061453,0.03493,-0.036816,-0.026319,-0.022196,-0.022573,-0.025736,-0.03266,-0.041954,-0.037167,-0.033583,-0.025891,-0.0071495,0.010128,0.011631,-0.0029493,0.0081227,0.013177,0.0069238,0.0086598,0.013921,0.020978,0.02506,0.043083,0.023019,0.024057,0.033372,0.042725,0.055014,0.054156,0.058256,0.055923,0.048787,0.03504,0.024551,0.10801,0.083479,0.073214,0.045206,0.019749,-0.0058714,-0.032584,-0.054424,-0.060302,-0.062859,-0.093771,0.055951,0.027626,0.011914,-0.030317,-0.12629,0.051148,0.074906,-0.059081,0.019304,0.02822,-0.0025452,0.030487,0.017544,0.011577,0.0029147,-0.0048806,0.0012064,0.0066504,0.010009,0.0057762,0.0063516,0.0022791,-0.022964,-0.02489,-0.037856,-0.04543,-0.046511,-0.043709,-0.038474,-0.034422,-0.025433,-0.019519,-0.021968,-0.043354,-0.044037,-0.039731,-0.032975,-0.016643,0.0012731,0.017993,0.025646,0.0262,0.016525,0.017019,-0.019059,-0.060749,-0.10971,-0.16492,-0.19019,-0.18268,-0.13389,-0.082753,-0.041317,-0.014937,0.012861,-0.036969,-0.025106,-0.014383,-0.021932,-0.018234,-0.026256,-0.02963,-0.026956,-0.015824,-0.018188,-0.017029,-0.026329,-0.025536,-0.019656,-0.026064,-0.025767,-0.030096,-0.027913,-0.030657,-0.028972,-0.031492,-0.029008,-0.034816,-0.043087,-0.045582,-0.02713,0.0067741,0.040018,0.057636,0.050538,0.027882,0.014605,-8.5653e-05,-0.010103,-0.00067912,0.0041229,0.0077264,0.017298,0.020636,0.021175,0.025196,0.022322,0.018404,0.013422,-0.031678,0.0070962,0.066447,0.11467,0.11474,0.06305,-0.0020263,-0.036939,-0.036315,-0.027247,-0.019563,0.089181,0.076096,0.072734,0.071984,0.056525,0.027779,0.011145,-0.0025844,-0.016496,-0.025795,-0.022524,0.038762,0.05705,0.071458,0.068326,0.055338,0.04153,0.02286,0.016411,0.012048,0.0077665,0.010926,-0.083531,-0.074463,-0.08087,-0.067738,-0.039984,-0.000411,0.034352,0.076057,0.089259,0.099628,0.11298,0.054099,0.014429,-0.086135,-0.053765,0.039154,-0.027499,-0.012821,0.029576,0.0059069,0.019775,0.01191,-0.0028425,-0.0087176,-0.0019604,0.0087417,0.019168,0.020386,0.020998,0.0038084,-0.00012332,-0.0053407,-0.018587,-0.038272,-0.038915,-0.037208,-0.029675,-0.014129,0.0075382,0.040441,0.050889,0.048283,0.038635,0.028293,-0.001434,0.001129,0.017185,0.0292,0.032632,0.03345,0.030261,0.022823,0.01146,0.0024001,-0.0029033
-0.016105,0.071557,0.059865,-0.074239,-0.14241,-0.040719,0.074854,0.079181,0.015765,-0.013491,-0.016212,-0.060983,0.00028861,0.123,0.15672,-0.014372,-0.16951,-0.088192,0.037834,0.02813,-0.0060311,0.0065165,-0.058465,-0.022898,-0.035688,-0.039832,-0.017604,-0.0020537,0.012227,0.030554,0.038828,0.028481,0.031106,-0.012937,-0.0065619,-0.017509,-0.020219,-0.0087108,-0.0032487,0.001477,-0.0092972,-0.013332,-0.015068,0.0077558,0.10518,0.10505,0.077171,-0.012586,-0.13983,-0.21495,-0.20315,-0.14328,-0.058083,0.0077365,0.051949,0.054696,0.062437,-0.13998,-0.13189,0.059013,0.12765,0.083976,0.0055996,-0.14376,-0.055711,0.078039,0.08989,0.053505,0.047058,0.025593,0.010419,-0.002427,-0.020301,-0.036674,-0.047181,-0.053569,-0.070955,0.015933,0.041971,0.051478,0.057165,0.066292,0.075885,0.03945,-0.013168,-0.04189,-0.041916,-0.038302,0.038958,0.037589,0.040172,0.044804,0.044927,0.047142,0.045268,0.037885,0.043079,0.030961,0.016588,0.060315,0.070725,-0.17558,-0.18781,0.12646,0.1178,0.018352,0.041009,-0.036219,-0.045526,0.0084203,-0.010535,-0.0083683,-0.0089667,-0.0095069,-0.0095822,-0.0070213,-0.0069107,-0.0073875,-0.010487,-0.0084722,0.0066445,0.031393,0.014576,-0.025455,-0.074242,-0.10234,-0.11193,-0.078182,-0.016474,0.065144,0.095921,0.063278,-0.043237,0.064366,0.052188,-0.035635,-0.061898,-0.0477,0.025157,0.083291,0.0061916,-0.037589,-0.0083115,0.00011165,0.0056077,-0.0052333,-0.0031347,-0.023203,0.06157,0.02631,-0.12605,0.063781,0.065384,-0.048096,0.0023888,-0.027313,-0.022529,-0.011263,0.013619,0.033931,0.037295,0.027653,0.0081073,-0.0097031,-0.01885,0.025141,0.018762,0.017567,0.030198,0.035377,0.024018,0.012368,0.011117,0.0010214,0.0036971,-0.0066585,-0.026582,-0.00075311,0.054419,0.10895,0.12868,0.1155,0.064365,0.004102,-0.026931,-0.022601,-0.015872,-0.00087189,0.035691,0.026544,0.015171,-0.040238,-0.096002,-0.052542,0.0077175,0.029993,0.024935,0.010199,-0.024449,-0.060068,-0.041231,0.018252,0.064667,0.11645,0.10941,0.029275,-0.032198,-0.038541,-0.020333,0.015002,0.039542,0.058501,0.045754,0.017987,-0.026779,-0.08003,-0.098776,-0.064012,-0.019731,-0.0035085,0.011176,-0.046064,0.05718,0.028588,-0.10785,0.031279,0.15159,-0.15418,-0.0078618,0.10447,-0.055089,0.049597,0.079921,0.11717,0.14488,0.15664,0.15091,0.13827,0.10739,0.081431,0.057607,0.039241,0.035906,-0.036662,-0.12453,0.079899,0.15992,-0.026971,-0.11418,0.010159,0.040191,-0.0043266,0.0033553,-0.050524,-0.068547,0.088623,0.15913,0.097052,-0.019655,-0.11518,-0.088902,-0.013218,0.021118,0.0062921,-0.0036155,-0.0038766,-0.0085843,-0.0025938,-0.00029012,-0.0012646,-0.0064115,-0.006097,0.0029873,-0.0018069,-0.00030242,-0.037104,-0.025499,-0.001978,0.011752,0.039696,0.033643,0.027706,0.02882,0.014536,-0.026142,-0.062808,-0.016416,-0.0046009,-0.0037134,0.0033577,0.02157,0.029776,0.036304,0.02769,0.019885,0.020188,0.021412,0.024536,0.017924,-0.054482,-0.094669,-0.041787,0.13791,0.16428,-0.065117,-0.13942,-0.020644,0.058158,-0.061251,-0.052223,-0.087392,-0.097794,-0.10008,-0.10384,-0.10424,-0.099854,-0.076,-0.038769,-0.048967,0.0021896,0.043915,0.071936,0.07138,0.067393,0.048616,0.016533,-0.025103,-0.057554,-0.066771,-0.079541,0.11142,0.057535,-0.012323,-0.12999,-0.19174,-0.16613,-0.089816,0.0094585,0.04628,0.051577,0.056059,-0.079001,-0.099554,-0.13724,-0.16416,-0.18827,-0.18199,-0.17882,-0.1603,-0.12653,-0.085002,-0.075464,0.056364,0.015011,-0.097381,-0.10545,-0.045331,0.02764,0.15956,0.17876,-0.010982,-0.14102,-0.064242,0.021208,0.0021296,0.0060486,0.013873,0.0042431,-0.0060693,-0.028391,-0.046646,-0.060148,-0.063926,-0.062398,0.017923,0.046458,0.065707,0.078325,0.049394,0.038948,-0.00052323,-0.054485,-0.080805,-0.079482,-0.051393,0.02888,-0.032476,-0.11923,0.07141,0.12308,0.035552,-0.055262,-0.16663,-0.052298,0.11928,0.001688,0.0083351,0.013258,0.035147,0.033172,0.016409,0.0056761,-0.011203,-0.016335,-0.0077932,-0.0050524,-0.011173,-0.0023976,0.058177,0.064101,-0.065977,-0.20535,-0.15245,0.036582,0.1985,0.18269,0.027389,-0.082038,0.074395,-0.15555,0.077885,0.13435,-0.25988,0.17241,-0.0023695,-0.11979,0.15064,-0.096397,0.029661,-0.018181,0.0076708,0.017578,0.00023563,-0.0064544,0.010669,0.0034764,-0.0070477,0.010916,0.01085,0.0033479,0.016219,-0.02476,-0.058475,-0.10493,-0.1201,-0.052299,0.0396,0.085243,0.11306,0.081885,0.036237,0.054375,-0.054088,-0.096037,0.071838,0.064714,0.073824,-0.082932,-0.20323,0.099418,0.12773,-0.032412,0.030433,0.0076455,-0.017647,-0.03133,-0.017152,-0.0028956,-0.0016485,-0.0063403,-0.0060362,-0.00025277,0.0066734,0.032507,0.037626,0.052135,0.056342,0.072295,0.080731,0.062278,0.042166,0.036358,0.016296,0.0073129,-0.1097,-0.11018,-0.10333,-0.081755,-0.043991,-0.011532,0.029963,0.081072,0.12477,0.12622,0.12848,0.0089485,0.0031269,0.0034238,-0.0030096,-0.001328,0.007039,0.0083464,0.013221,-0.0020716,-0.040386,-0.060123,0.0068931,0.019667,0.018375,0.0064095,0.010442,0.018331,0.010212,0.0027686,0.00060442,0.0026001,0.0052568,-0.040419,-0.066504,-0.10709,-0.12968,-0.12864,-0.10809,-0.055938,-0.019756,-0.002593,-7.6675e-05,-0.0035147,-0.005028,-0.0050777,-0.0035603,0.0029786,0.00020106,0.0039974,-0.0009644,-0.001522,-0.00049076,0.0018566,0.0047528,0.0077131,0.018614,0.020217,0.019458,0.022254,0.020407,0.0073917,-0.0035432,-0.0093652,-0.01687,-0.0098751,0.015054,0.038233,0.085522,0.097773,0.041431,-0.051368,-0.12665,-0.1321,-0.068228,-0.0049563,0.029294,0.013767,9.329e-05,0.012059,0.018039,0.01968,0.012164,0.0028115,-0.00070939,-0.0047838,-0.0072145,-0.00038104,-0.0036519,-0.0068645,-0.0001363,0.0071415,0.010817,0.011339,0.011074,0.0029308,-0.0072555,-0.0068647,-0.011119,0.099697,0.074929,-0.063629,-0.21727,-0.25667,-0.18912,-0.047787,0.057451,0.067106,0.054233,0.050798,-0.0038937,-0.0043822,-0.016676,-0.026816,-0.047779,-0.0444,-0.041686,-0.02102,-0.01285,-0.0099497,-0.00823,0.022551,0.019752,0.014599,-0.0052588,-0.022564,-0.046724,-0.061983,-0.061372,-0.047989,-0.027727,-0.0040205,0.025101,0.03881,0.060189,0.068685,0.067908,0.065122,0.05103,0.037013,0.023191,0.0060925,-0.0039815,0.053456,0.040985,0.044929,0.045056,0.043649,0.045752,0.042271,0.04156,0.042507,0.04227,0.049252,-0.0061171,-0.015803,-0.02326,-0.02444,-0.024453,-0.018658,-0.018769,-0.017341,-0.018873,-0.022477,-0.0162,0.032143,0.020673,0.023847,0.020835,0.020404,0.012041,-0.0030748,-0.022374,-0.038171,-0.04003,-0.024176,0.023812,0.018282,0.020162,0.012819,0.0036379,-0.0019314,-0.012349,-0.014802,-0.020995,-0.0252,-0.024253,0.0060154,0.010861,-0.013044,-0.049524,-0.072774,-0.073427,-0.027574,0.0073167,0.036983,0.041806,0.039276,0.054518,0.043909,0.025893,-0.016483,-0.097322,-0.19169,-0.24604,-0.19724,-0.10853,-0.02536,0.034304,-0.0061408,0.0054376,0.010323,0.033895,0.039701,0.03779,0.026445,0.0043039,-0.013757,-0.0087704,-0.0087564,-0.0060551,-0.0066919,-0.0026174,0.0021595,0.0042135,0.013842,0.0078296,0.010373,0.009673,0.01143,-0.0034859,0.024617,0.012065,-0.0091503,-0.042024,-0.078516,-0.093453,-0.086162,-0.04467,-0.0052144,0.013333,0.028594,0.093577,0.083923,0.089989,0.082492,0.069468,0.044393,0.0037385,-0.036744,-0.059727,-0.0701,-0.082346,-0.011507,-0.0083688,-0.014177,-0.027879,-0.016798,0.0026867,-0.0084682,-0.011377,0.0062347,0.021759,0.010374,-0.1015,-0.094096,-0.097791,-0.09438,-0.067719,-0.025858,0.011108,0.04728,0.068646,0.085487,0.10929,0.090077,0.077903,0.074644,0.060143,0.040002,0.010516,-0.019092,-0.052478,-0.082317,-0.10212,-0.10741,-0.049006,-0.049143,-0.038648,-0.020594,0.001776,0.031984,0.045683,0.057459,0.062968,0.061601,0.064336,-0.02551,-0.014629,-0.016152,-0.005309,-0.0017597,-0.0026799,0.011473,0.021744,0.026719,0.021828,0.020109,-0.037314,-0.017484,-0.01109,-0.016957,-0.01716,-0.02129,-0.01279,-0.0049535,0.0026309,8.1638e-05,-0.01841,0.074002,0.06681,0.066038,0.058055,0.044118,0.041613,0.033034,0.026813,0.017802,0.01297,-0.0051835,0.003995,0.018576,0.028092,0.032355,0.030115,0.027407,0.019091,0.016387,0.015009,0.01224,-0.0052498,-0.041433,-0.035615,-0.025194,-0.026693,-0.037356,-0.042244,-0.051128,-0.038969,-0.02882,-0.012089,0.008403,0.016266,0.023861,0.010798,0.013732,0.01743,0.0082534,0.011872,0.020056,0.030873,0.030653,0.052859,0.018503,0.019241,0.020311,0.031233,0.03507,0.037207,0.040606,0.041972,0.025068,0.014064,0.010773,0.10699,0.088752,0.081349,0.06202,0.016685,-0.01661,-0.03827,-0.060338,-0.070179,-0.070924,-0.096269,0.023966,-0.053881,-0.0029985,-0.016763,0.09309,0.073029,-0.089761,0.010294,0.038223,-0.036408,0.0032728,0.016454,0.011748,0.016798,0.018121,0.010197,-0.001289,0.00037304,0.0032125,0.0030834,0.0049939,0.0020005,-0.025174,-0.024199,-0.032789,-0.043623,-0.03616,-0.030118,-0.023798,-0.020542,-0.017246,-0.012058,-0.023828,-0.04039,-0.037306,-0.030539,-0.020541,0.0053765,0.027254,0.049121,0.057271,0.058464,0.04309,0.035291,-0.0055046,-0.059956,-0.1107,-0.1617,-0.18389,-0.18218,-0.12686,-0.077305,-0.033854,-0.0021071,0.019513,-0.023814,-0.023309,-0.01472,-0.020642,-0.019653,-0.0205,-0.019402,-0.025669,-0.0076086,-0.019095,-0.025788,-0.024971,-0.014996,-0.01521,-0.022204,-0.024794,-0.027325,-0.028179,-0.030691,-0.029474,-0.033633,-0.03352,-0.040329,-0.039573,-0.026295,0.011646,0.069198,0.11482,0.11136,0.07732,0.038476,0.0067059,-0.015989,-0.018773,-0.0094752,-0.0086268,-0.01041,-0.011693,-0.0093618,-0.0014134,-0.00037311,0.005992,0.0095671,0.0054391,-0.078902,-0.033285,0.030008,0.1131,0.16416,0.1328,0.04444,-0.00044384,-0.022713,-0.033301,-0.027839,0.076792,0.068524,0.064217,0.060529,0.046279,0.025579,0.002327,-0.013228,-0.024773,-0.031711,-0.027894,0.032,0.045989,0.046759,0.043093,0.030823,0.020545,0.013069,0.0081984,0.0067875,0.0069237,0.011428,-0.086659,-0.089837,-0.095964,-0.082502,-0.057722,-0.01267,0.030507,0.07545,0.094993,0.10121,0.11504,-0.036581,-0.057173,0.041914,0.11022,-0.0013591,-0.01161,0.050863,-0.012039,-0.0037452,-0.0031107,-0.018077,-0.0032924,-0.00047819,0.012396,0.01975,0.031818,0.026219,0.019774,-0.00031994,-0.0050024,-0.015509,-0.022951,-0.028486,-0.026612,-0.027953,-0.0086282,0.013693,0.026859,0.060929,0.062316,0.054388,0.044076,0.035759,-0.010661,-0.0054714,0.0061697,0.014864,0.025582,0.02652,0.021866,0.011276,0.0020051,-0.0038651,-0.0081384
-0.027095,0.061609,0.099479,-0.0040932,-0.12886,-0.10219,0.02373,0.068739,0.043386,0.0057125,-0.01979,-0.044259,0.029668,0.11531,0.077444,-0.095207,-0.13435,-0.015902,0.040331,-0.0045079,-0.0058262,0.014163,-0.041848,-0.012554,-0.019363,-0.020504,-0.0055625,0.012767,0.028,0.040896,0.03604,0.02757,0.042263,-0.023517,-0.024151,-0.041413,-0.049817,-0.042705,-0.037517,-0.041829,-0.04326,-0.034369,-0.025668,-0.0074918,0.085345,0.13183,0.15176,0.12052,0.015671,-0.11984,-0.19927,-0.19014,-0.12338,-0.062739,-0.012269,0.07082,0.033431,-0.1651,-0.1192,0.089525,0.15436,0.066268,-0.030488,-0.15039,-0.044574,0.07794,0.088274,0.057986,0.053275,0.02791,0.0068145,-0.0012768,-0.028448,-0.046628,-0.052095,-0.048502,-0.065804,0.035724,0.034867,0.043214,0.032355,0.022352,0.0083231,-0.025393,-0.065568,-0.064255,-0.036493,-0.023874,0.0084542,0.018403,0.02989,0.038304,0.03217,0.043584,0.04961,0.053779,0.05435,0.037681,0.046377,-0.052832,0.1058,0.2585,-0.039329,-0.25971,-0.0713,-0.010152,0.028494,0.072345,-0.0076188,-0.016697,-0.0050231,-0.0071961,-0.0063739,-0.011404,-0.011003,-0.007582,-0.007686,-0.0089843,-0.0091303,-0.0059195,0.0044544,-0.029734,-0.036614,-0.02412,-0.0068791,0.029044,0.07616,0.10754,0.098948,0.049548,-0.0042072,-0.044838,-0.039091,0.068115,0.030088,-0.058967,-0.059986,-0.012002,0.063847,0.073324,-0.029859,-0.041519,0.008952,-0.0048449,0.016735,0.0071258,-0.010534,-0.051259,0.019398,0.091979,-0.094545,-0.04029,0.097903,-0.037558,0.010286,-0.0063843,-0.029589,-0.035226,-0.017735,0.015842,0.020408,0.026109,0.018611,-0.002234,-0.020513,0.014981,0.0034185,-0.0014538,0.0066822,0.0047859,-0.0045415,0.0023045,0.0034221,-0.015786,-0.0037096,-0.012409,0.06912,0.10058,0.10304,0.059618,-0.017652,-0.076679,-0.10498,-0.094662,-0.044516,-0.008769,0.0072553,0.0050512,0.030319,0.02027,0.0224,-0.01572,-0.077059,-0.051299,0.0053683,0.025939,0.020958,0.01323,0.015896,0.0050737,-0.042444,-0.052726,-0.044499,-0.027533,0.0021988,0.051606,0.047183,0.020187,-0.00051423,0.023099,0.028938,0.02314,-0.014014,-0.064878,-0.090316,-0.088799,-0.064966,-0.021078,0.0077139,0.031686,-0.002856,-0.020882,0.059314,-0.017469,-0.12949,0.1437,0.062439,-0.22918,0.12736,0.037432,-0.057938,-0.059553,-0.094344,-0.14417,-0.16844,-0.17953,-0.17743,-0.1519,-0.12832,-0.09657,-0.05931,-0.045742,0.022483,0.019525,-0.13491,-0.030041,0.16213,0.054494,-0.10571,-0.045028,0.035281,0.0037616,-0.0081582,0.019055,-0.060552,-0.072055,0.0017949,0.037423,0.065279,0.047366,0.0056607,-0.018788,-0.02303,-0.0090003,-0.0019265,-0.0021327,-0.0016034,0.0011795,-0.0019882,-0.0034145,-0.004959,-0.0025923,0.006043,0.00043966,0.0071394,-0.037758,-0.017195,0.019495,0.023544,0.027003,0.031667,0.050422,0.03732,-0.0056648,-0.035859,-0.037334,0.012866,0.027915,0.03754,0.040718,0.050472,0.054073,0.059732,0.0463,0.032403,0.025499,0.025334,0.029049,0.070396,-0.0032877,-0.11501,-0.14764,0.019174,0.21868,0.10051,-0.11041,-0.077833,0.016644,-0.045112,-0.044579,-0.079132,-0.099067,-0.10736,-0.10653,-0.11041,-0.10463,-0.088862,-0.062044,-0.067903,-0.031613,0.016232,0.046525,0.064679,0.069189,0.052724,0.03562,0.015262,-0.015477,-0.042015,-0.074157,0.071976,0.0024229,-0.085153,-0.17499,-0.17645,-0.10857,0.0060924,0.080229,0.085752,0.06934,0.038811,-0.021124,-0.0001299,0.0053874,0.018247,0.022121,0.036514,0.026711,0.022317,0.021379,0.014394,0.003248,0.058268,0.033118,-0.095253,-0.12526,-0.074014,0.0027041,0.15425,0.19203,0.03127,-0.12319,-0.084719,0.018123,0.015632,0.011019,0.021142,0.031036,0.026825,0.013329,0.0020563,-0.010046,-0.020916,-0.041836,0.05195,0.07096,0.080476,0.088195,0.056365,0.012014,-0.050884,-0.096987,-0.11045,-0.082236,-0.05069,0.032535,-0.037177,-0.10306,0.072845,0.10436,0.022133,-0.021016,-0.1391,-0.073285,0.10432,0.022636,0.027472,0.025634,0.05918,0.074757,0.098691,0.12354,0.11689,0.090775,0.081845,0.053219,0.048168,0.027324,0.020477,-0.064704,-0.14437,-0.096784,0.10111,0.24175,0.19316,-0.012517,-0.14947,-0.06759,0.048386,-0.10688,0.039035,0.13513,-0.21601,0.12537,0.028329,-0.10393,0.12043,-0.074612,0.021301,-0.036303,0.0033768,0.021081,0.011865,0.0043895,0.018188,0.0066232,-0.00042731,0.026619,0.0087834,0.0033917,0.042122,0.038709,0.021602,-0.021458,-0.089292,-0.13696,-0.12138,-0.056558,0.030998,0.066922,0.071183,-0.0028579,-0.091015,0.064157,0.078353,0.0083533,-0.035827,-0.20204,0.013517,0.24156,0.0058567,-0.08546,0.04057,0.016138,-0.0069305,-0.025385,-0.015437,-0.0086461,-0.010901,-0.0069701,-0.00084303,0.0048742,0.0084073,0.010891,0.0080328,0.013093,0.0045193,0.0066687,0.010785,-0.009014,-0.0090469,-0.0070896,-0.016589,-0.028657,-0.0856,-0.09103,-0.092554,-0.068763,-0.041181,-0.013882,0.020102,0.064268,0.095852,0.094377,0.095677,0.00041577,-0.0060742,-0.0021841,-0.001367,-0.00021928,-0.0012707,0.0040434,0.0080409,-0.010593,-0.030583,-0.026953,0.0090738,0.017519,0.021258,0.014639,0.0043815,-0.004358,-0.0044966,-0.0044373,-0.0044875,-0.0044283,-0.0062941,0.045883,0.058837,0.070874,0.070772,0.05431,-0.00057514,-0.051665,-0.067899,-0.062208,-0.040392,-0.024637,0.0013949,-0.0049919,0.0021693,0.0029871,0.00099029,-0.00052545,-0.0038794,-0.0023166,-0.0010296,0.0035089,0.0053318,0.0092954,0.014318,0.019063,0.0094414,0.0038843,-0.0021116,-0.012695,-0.018206,-0.013086,-0.0071892,-0.0093759,-0.0025699,0.015117,0.051982,0.076613,0.059893,0.034271,-0.0014313,0.0017164,0.016412,0.018368,0.014353,0.012901,0.0072686,0.0093632,0.0093641,0.0069708,0.0019836,0.00024938,0.001262,-0.001619,-0.0016046,0.0076399,-0.00095724,0.00093815,0.02387,0.021748,-0.009869,-0.051557,-0.057404,-0.025943,-0.0026242,0.002744,0.013028,-0.011014,-0.097301,-0.23761,-0.30788,-0.23515,-0.062553,0.11233,0.19845,0.1527,0.080805,0.039729,-7.6264e-05,0.00048665,-0.0039066,-0.011109,-0.020969,-0.027508,-0.033388,-0.02332,-0.019692,-0.011973,-0.018217,0.015441,0.012253,0.0032048,-0.020492,-0.04789,-0.074247,-0.088791,-0.082304,-0.069561,-0.049487,-0.017284,0.03232,0.050945,0.069992,0.072648,0.075232,0.068202,0.057897,0.04502,0.027106,0.0069517,-0.0049144,0.049359,0.041728,0.041898,0.043114,0.042908,0.039153,0.030142,0.040763,0.040365,0.041677,0.047736,0.0081775,0.0078242,0.010294,0.01331,0.02631,0.03308,0.034194,0.021923,0.014176,0.0024452,0.0015567,0.029892,0.016501,0.029361,0.024031,0.0222,0.020402,-0.0021099,-0.031121,-0.050072,-0.052539,-0.042893,0.036015,0.035331,0.031549,0.025405,0.014315,0.0046696,-0.0028813,-0.0049471,-0.010978,-0.016181,-0.011986,-0.012529,-0.022853,-0.034942,-0.027297,0.00039242,0.040898,0.061959,0.062719,0.044945,0.01557,0.0084953,0.051139,0.049333,0.022435,-0.016972,-0.085967,-0.18048,-0.22783,-0.1897,-0.10366,-0.026281,0.025842,-0.0061027,0.00019378,0.015022,0.037813,0.045982,0.032347,0.032059,0.013053,-0.0049478,0.0015385,-0.0022031,-0.0023288,-0.0010576,-0.0012811,0.0016643,0.0065515,0.0095188,0.008357,0.010091,0.0084706,0.0080585,-0.0095272,0.020394,0.0087929,-0.0031525,-0.035794,-0.059727,-0.075101,-0.063085,-0.026337,0.002491,0.020293,0.02315,0.089851,0.083508,0.087294,0.08523,0.075542,0.062498,0.025468,-0.0099322,-0.037339,-0.048595,-0.066874,-0.013103,-0.014257,-0.020601,-0.0064035,0.018869,0.0096778,0.024197,0.024717,0.0037583,0.0051407,-0.00073821,-0.094292,-0.087922,-0.10308,-0.10296,-0.07593,-0.048512,-0.019386,0.014152,0.040696,0.052741,0.081732,0.071897,0.05595,0.042977,0.02125,-0.0063435,-0.033551,-0.067621,-0.10041,-0.12623,-0.12966,-0.13114,-0.034844,-0.021149,-0.0043466,0.016032,0.041435,0.058952,0.067639,0.06828,0.075965,0.068318,0.066008,-0.016714,-0.011494,-0.015108,-0.0086412,0.0013139,0.0057978,0.013088,0.020859,0.027754,0.029744,0.021995,-0.041018,-0.021812,-0.022141,-0.026911,-0.018326,-0.023211,-0.017956,-0.0039327,-0.00018919,-0.007793,-0.024559,0.065419,0.062344,0.059308,0.058008,0.047955,0.044077,0.040694,0.032006,0.024148,0.015891,-0.0045181,0.033229,0.050238,0.068184,0.063612,0.048796,0.025714,-0.0098139,-0.036688,-0.054218,-0.04771,-0.036447,-0.042781,-0.030698,-0.025481,-0.029892,-0.037572,-0.043625,-0.048318,-0.023387,0.018565,0.032131,0.036891,0.0078588,0.020349,0.005774,0.016422,0.017949,0.0089572,0.011393,0.027157,0.034232,0.038277,0.053495,0.0081596,0.0015907,0.0039319,0.0033889,-0.00024571,0.0049088,0.0054946,-0.0043989,-0.013114,-0.0078153,-0.00091085,0.11989,0.090713,0.086826,0.054555,0.015577,-0.019854,-0.03848,-0.058261,-0.069162,-0.063432,-0.089515,-0.019107,0.021544,0.028632,0.022251,-0.005821,-0.087909,0.020758,0.058527,-0.037444,-0.0029442,0.013455,-0.016494,-0.010092,0.00097561,0.0097712,0.014618,0.011473,0.0069816,-0.0019835,0.0023809,0.0025433,-0.0032627,-0.030576,-0.028727,-0.033783,-0.03218,-0.018778,-0.0045116,0.005018,0.0040079,-0.0026041,-0.0038528,-0.0051099,-0.042099,-0.039161,-0.025888,-0.0047136,0.022174,0.047451,0.078918,0.086102,0.08114,0.065129,0.054767,-0.0019551,-0.045247,-0.090683,-0.12541,-0.14587,-0.13826,-0.092675,-0.052955,-0.029237,0.0021072,0.018895,-0.025087,-0.019948,-0.016158,-0.015665,-0.022573,-0.022753,-0.018944,-0.022661,-0.011018,-0.019696,-0.019536,-0.015366,-0.013884,-0.023519,-0.020003,-0.024019,-0.023619,-0.028466,-0.028166,-0.03075,-0.032614,-0.030541,-0.019627,-0.00049414,0.046771,0.1107,0.1608,0.16895,0.12563,0.062637,0.0048627,-0.034624,-0.045855,-0.018922,-0.013711,-0.014033,-0.021239,-0.030169,-0.025813,-0.021239,-0.017225,-0.011843,-0.0014617,0.0028504,-0.10662,-0.085643,-0.043267,0.037365,0.12892,0.14433,0.083552,0.040893,0.004597,-0.016453,-0.016591,0.059235,0.053973,0.051511,0.047208,0.034099,0.013626,-0.0043946,-0.019527,-0.025468,-0.032294,-0.031456,0.025407,0.020567,0.019089,0.0093191,0.0036561,0.00027494,-0.0035124,-0.0071175,-0.00073013,0.0024353,0.0054109,-0.084212,-0.091186,-0.096195,-0.08689,-0.061769,-0.022686,0.028299,0.068705,0.090373,0.093262,0.11207,0.025987,0.080982,0.048696,-0.087148,-0.065314,0.034408,-0.028872,0.00032328,0.0068596,-0.010981,0.0023369,0.0037234,0.0093087,0.028021,0.028833,0.024273,0.019896,0.011899,-0.012274,-0.017618,-0.022473,-0.027098,-0.011698,-0.014672,-0.00861,0.0075951,0.034261,0.051948,0.074688,0.079396,0.072066,0.051857,0.046634,-0.020435,-0.017154,-0.015555,-0.0068591,0.0014633,0.0026957,0.0012089,-0.003037,-0.0037626,-0.0017725,-0.012892
-0.041367,0.029159,0.094072,0.055855,-0.063159,-0.10964,-0.035726,0.033753,0.039366,0.019143,-0.00018976,-0.021283,0.035563,0.08275,0.021783,-0.096487,-0.072831,0.011717,0.023392,-0.0084447,0.0032985,0.0090574,-0.030267,-0.0023297,0.00028092,0.010453,0.020527,0.02751,0.027781,0.039554,0.031143,0.024385,0.044078,-0.02894,-0.043596,-0.067514,-0.080385,-0.078709,-0.071203,-0.070306,-0.064211,-0.049795,-0.03598,-0.0062428,0.024434,0.097092,0.15242,0.18998,0.16177,0.063399,-0.053535,-0.12134,-0.12705,-0.10168,-0.058816,0.067171,-0.0048706,-0.16931,-0.082475,0.12565,0.16137,0.017611,-0.065864,-0.13099,-0.029222,0.060901,0.086123,0.063075,0.060311,0.033841,0.01464,-0.00091222,-0.023974,-0.044303,-0.049248,-0.04383,-0.057047,0.04634,0.02084,0.02535,0.022214,-0.0075961,-0.035728,-0.049001,-0.039922,-0.022539,-0.0068108,-0.0048838,-0.021728,-0.025188,-0.011948,0.016787,0.026404,0.026873,0.04341,0.052651,0.055692,0.037147,0.056526,-0.035402,-0.19545,-0.052987,0.27999,0.17995,-0.028074,-0.055349,-0.074492,-0.026806,0.036433,-0.018448,-0.0045497,-0.0097245,-0.011678,-0.0095338,-0.0079152,-0.0055642,-0.0040035,-0.0031812,-0.0043396,-0.0073925,0.0028705,0.014434,0.024872,0.048872,0.052862,0.038305,0.012888,-0.035697,-0.063666,-0.077807,-0.046045,-0.021784,-0.027407,0.055743,0.0033522,-0.062634,-0.030651,0.017371,0.06179,0.03029,-0.048754,-0.018227,0.0099991,-0.0093996,0.0036966,0.013189,0.015389,-0.044044,-0.044552,0.094778,0.012067,-0.11576,0.066707,0.0048719,0.010244,-0.0022872,-0.022338,-0.041661,-0.03199,0.0066679,0.016965,0.023025,0.026322,0.011554,-0.0022203,0.0080444,0.0005393,-0.004909,0.001834,-0.016694,-0.018285,-0.0042901,0.00034945,-0.022506,-0.0085835,-0.019524,-0.0037968,-0.054931,-0.11318,-0.16723,-0.16982,-0.12012,-0.051407,0.002506,0.034748,0.024376,0.017657,0.0038052,0.017809,0.0078782,0.019463,0.0066375,-0.053611,-0.050404,-0.00015749,0.019358,0.0096728,0.016112,-0.0090053,0.017509,0.012534,-0.012974,-0.016699,-0.006193,-0.023248,-0.03993,-0.012874,0.0031425,-0.0068586,0.035818,0.012048,-0.0054038,-0.033597,-0.061958,-0.058262,-0.016746,0.0076599,0.039561,0.046541,0.04459,0.0039097,-0.018299,0.07264,-0.083637,-0.044686,0.21614,-0.13973,-0.11826,0.22002,-0.083621,-0.0036676,0.019199,0.04087,0.061528,0.080644,0.094805,0.089763,0.062404,0.047695,0.038781,0.018122,0.0067528,0.0069659,0.060013,-0.082677,-0.10373,0.10451,0.12556,-0.048701,-0.065865,0.0098242,0.017179,-6.1219e-05,0.010584,0.020817,-0.021531,-0.018694,0.00051449,-0.011464,-0.0063467,0.0011158,0.013644,0.016121,0.00075668,0.005428,0.0036448,-0.0035181,-0.0028504,0.0008521,0.00099347,-0.0042494,-0.00028082,0.00876,-0.0029669,0.00029107,-0.041648,-0.022177,0.018373,0.025085,0.020456,0.020659,0.04721,0.022732,-0.027613,-0.042726,-0.033237,0.03474,0.046526,0.066848,0.063555,0.057816,0.056799,0.058158,0.0508,0.033861,0.019377,0.025991,-0.03693,0.094793,0.10989,-0.039325,-0.17646,-0.12681,0.1014,0.18684,0.020757,-0.078416,-0.021061,-0.013968,-0.020446,-0.038996,-0.052595,-0.067415,-0.07362,-0.076323,-0.064131,-0.062688,-0.052298,-0.059165,-0.039193,-0.0092096,0.015815,0.037583,0.05217,0.050083,0.040011,0.022679,-0.00019325,-0.018181,-0.047855,0.050161,-0.045599,-0.11503,-0.14645,-0.10596,-0.00081028,0.10206,0.12667,0.095397,0.048053,-0.0079809,0.016054,0.025168,0.043106,0.05561,0.057903,0.053559,0.046138,0.045845,0.042962,0.013911,0.014964,0.04757,0.044687,-0.075314,-0.11989,-0.084844,-0.017287,0.12781,0.18304,0.053703,-0.088542,-0.095109,0.01619,0.018635,0.022486,0.034963,0.05511,0.076592,0.066272,0.061343,0.045175,0.019488,-0.0014561,0.064414,0.080997,0.086496,0.073858,0.037766,0.0079922,-0.055295,-0.091871,-0.09086,-0.063925,-0.028138,0.027886,-0.039668,-0.089544,0.088215,0.087703,0.0084594,0.011339,-0.11028,-0.08897,0.077852,0.033375,0.004689,-0.0097307,-0.0057183,-0.0084255,-0.0026017,0.022099,0.034258,0.038858,0.048271,0.02327,0.040101,0.017003,-0.046491,-0.076634,-0.018399,0.1184,0.21907,0.12769,-0.077844,-0.19164,-0.07151,0.057688,0.03688,-0.076459,0.016022,0.10465,-0.14359,0.0677,0.03221,-0.071773,0.066813,-0.054015,0.017666,-0.06913,-0.0219,0.010977,0.007904,0.00093716,0.012081,0.0036484,0.010325,0.016504,-0.0012165,0.0022861,0.0075994,0.029157,0.058361,0.055692,0.033687,-0.016669,-0.089397,-0.10706,-0.078137,-0.039955,0.012056,-0.03664,0.021969,0.084605,-0.027344,-0.029662,-0.095052,-0.065064,0.23689,0.093314,-0.16081,-0.024778,0.052525,0.02605,0.018367,0.0089921,0.0091098,0.0025383,-0.0087918,-0.0023935,0.0047534,0.0036739,0.013795,-0.029829,-0.03964,-0.061711,-0.097244,-0.12075,-0.13783,-0.14281,-0.11808,-0.10268,-0.094756,-0.082154,-0.055934,-0.069252,-0.070714,-0.053478,-0.030812,-0.0067856,0.015081,0.040932,0.066427,0.070049,0.067471,0.0043677,-0.0066074,-0.010117,-0.0038034,0.0053226,0.0084787,0.0060278,0.0045265,-0.0076159,-0.001874,0.015415,0.014024,0.023138,0.01876,0.01253,0.0042906,0.0043456,0.0044266,0.0033842,-0.0029788,-0.0053054,-0.01009,-0.021441,-0.013059,-0.0086115,0.017946,0.075295,0.13625,0.16117,0.13645,0.10685,0.073804,0.034814,0.0096767,0.0055882,0.0090424,0.0014513,-0.0038987,-0.0025855,-4.6794e-05,0.0019693,0.002833,0.0084595,0.005128,0.0022689,0.0059545,0.0036621,-0.0023009,-0.01087,-0.012784,-0.013876,-0.008776,-0.0039208,-0.00011122,-0.0054139,-0.011316,-0.014583,0.01342,0.028445,0.040558,0.056546,0.059519,0.064212,0.042885,0.017519,-0.003322,0.0096642,0.0047622,0.00044002,0.0085954,0.0062425,0.00011396,-3.0053e-07,-0.00080447,-0.0037351,0.0032461,0.014216,-0.013226,0.0016623,-0.011377,-0.058747,-0.084706,-0.039974,0.053308,0.075021,0.056514,0.026616,0.009178,-0.052666,-0.10331,-0.15646,-0.13368,-0.027004,0.10545,0.20498,0.20354,0.089592,-0.0056873,-0.031757,0.0044697,0.0057384,0.004822,-7.1761e-05,-0.0066992,-0.012338,-0.015182,-0.015047,-0.014045,-0.0097907,-0.013142,0.021386,0.012584,-0.0023291,-0.024014,-0.052982,-0.085216,-0.10468,-0.101,-0.087682,-0.063582,-0.024782,0.03063,0.045714,0.067272,0.071345,0.07457,0.068481,0.058139,0.045262,0.029257,0.0097124,-0.0013871,0.041349,0.037859,0.044122,0.037876,0.039353,0.038334,0.037083,0.035004,0.032222,0.035585,0.044301,0.023725,0.03279,0.039858,0.058201,0.068544,0.074294,0.066877,0.050662,0.039019,0.023879,0.022671,0.022235,0.013423,0.024877,0.026663,0.020006,0.020083,0.0032848,-0.025284,-0.048299,-0.054535,-0.046431,0.035406,0.040899,0.039507,0.034216,0.025432,0.017749,0.0094256,0.0043087,-0.0010383,-0.0099405,-0.0026608,-0.013205,0.002707,0.0094706,0.017123,0.029449,0.026097,0.011261,-0.0083746,-0.021904,-0.019529,-0.0089739,0.041163,0.039785,0.018846,-0.010244,-0.058924,-0.10997,-0.1311,-0.10745,-0.059711,-0.010223,0.01839,-0.014227,-0.0017913,0.0064037,0.023961,0.041992,0.039856,0.032206,0.021151,0.0061082,0.0029369,-0.0017876,-0.006151,0.0017463,0.0021136,0.0019273,0.0046089,0.0083749,0.0019014,0.0029897,-0.00011797,0.0044252,-0.0098046,0.020045,0.012359,-0.0028165,-0.011991,-0.021948,-0.032531,-0.026089,-0.0035649,0.016631,0.019939,0.018775,0.070179,0.069838,0.076601,0.069246,0.061664,0.051304,0.030912,0.005888,-0.019735,-0.031623,-0.051197,-0.0052066,-0.011236,0.00084427,0.0089187,0.0050506,0.00044844,-0.01962,-0.048017,-0.012658,0.038125,0.020847,-0.089884,-0.086734,-0.1006,-0.09234,-0.076643,-0.060455,-0.040357,-0.010894,0.015088,0.027312,0.052362,0.050815,0.028648,0.01223,-0.018797,-0.044072,-0.07388,-0.1034,-0.13384,-0.14564,-0.14671,-0.1438,-0.023949,-0.0046424,0.016179,0.041635,0.060864,0.074319,0.080814,0.080132,0.080414,0.076369,0.068405,-0.015243,-0.0085867,-0.012316,-0.0043355,0.0053495,0.0074425,0.01537,0.020977,0.026852,0.027101,0.021437,-0.053114,-0.033378,-0.030257,-0.040049,-0.032963,-0.031494,-0.029976,-0.026244,-0.013133,-0.017207,-0.029953,0.061677,0.049334,0.049159,0.045923,0.038117,0.042162,0.041113,0.032636,0.0231,0.019016,3.2192e-05,0.061778,0.07658,0.091661,0.082121,0.059476,0.025202,-0.029643,-0.079692,-0.10882,-0.095938,-0.064256,-0.039996,-0.024335,-0.023534,-0.027056,-0.02806,-0.032157,-0.013083,0.044449,0.11056,0.1221,0.094979,-0.024735,0.0023254,0.0090444,0.015961,0.023277,0.023051,0.021071,0.031232,0.037479,0.037082,0.060425,-0.0055948,-0.022335,-0.029479,-0.038009,-0.042792,-0.046895,-0.048508,-0.047848,-0.052543,-0.042951,-0.028004,0.11021,0.081417,0.062829,0.031517,0.0042414,-0.022422,-0.02887,-0.047776,-0.064017,-0.054065,-0.078991,-0.0018281,0.01498,-0.027303,-0.015983,0.0015881,0.05559,0.044906,-0.064154,-0.0059538,0.019221,-0.014824,-0.028991,-0.02848,-0.022947,-0.010281,-0.0078614,0.0024924,0.0018576,0.0030149,0.0050194,0.0042918,-0.00062192,-0.021519,-0.022107,-0.017606,-0.0033172,0.01765,0.034997,0.048571,0.034975,0.027394,0.015937,0.0057672,-0.043146,-0.035033,-0.023353,0.0010368,0.029203,0.061865,0.083865,0.094492,0.084098,0.070488,0.069376,0.0041898,-0.022574,-0.0514,-0.073966,-0.087057,-0.082903,-0.059762,-0.031364,-0.011443,0.012958,0.022479,-0.032223,-0.015205,-0.012897,-0.012694,-0.018188,-0.024195,-0.021546,-0.017523,-0.0089985,-0.017397,-0.016774,-0.0094033,-0.013705,-0.019635,-0.017754,-0.027186,-0.028456,-0.032724,-0.036833,-0.034616,-0.037209,-0.037221,0.028302,0.058859,0.12076,0.15983,0.15307,0.10901,0.031668,-0.030665,-0.072039,-0.077292,-0.059426,-0.022663,-0.018083,-0.019688,-0.027384,-0.03428,-0.041453,-0.032318,-0.030914,-0.019189,-0.016793,-0.009953,-0.097229,-0.099048,-0.090471,-0.037738,0.036853,0.085481,0.081098,0.052846,0.03096,0.015726,0.007862,0.040156,0.035331,0.037957,0.035218,0.01923,0.0044949,-0.0078645,-0.022536,-0.023568,-0.027426,-0.031973,0.025277,0.010926,0.0093613,0.004041,-0.00060806,-0.0086741,0.00037363,0.0017394,-0.0020134,-0.0055252,0.0020353,-0.082824,-0.084407,-0.08936,-0.07902,-0.055965,-0.022545,0.018886,0.060868,0.078436,0.095176,0.11406,0.015161,-0.041181,-0.089588,0.014142,0.097195,0.0045663,0.0038584,0.0094287,-0.020391,0.0010256,-0.0076026,0.010579,0.012535,0.021434,0.028266,0.015704,0.013548,0.0050507,-0.020305,-0.019706,-0.020207,-0.022535,-0.010548,-0.0047637,0.0012725,0.024336,0.046557,0.072002,0.082087,0.083951,0.067521,0.049972,0.053944,-0.030864,-0.03178,-0.030204,-0.021578,-0.01481,-0.0097757,-0.0112,-0.01243,-0.0080889,-0.0069704,-0.012529
-0.040465,-0.010344,0.065143,0.068613,-0.0019984,-0.071696,-0.06057,-0.0053304,0.011503,0.01215,0.012195,-0.015553,0.040561,0.048022,-0.0099826,-0.065634,-0.024745,0.0089503,0.0074652,-4.5984e-05,0.012598,0.00018099,-0.017313,-0.00095876,0.0049116,0.016454,0.018204,0.020343,0.026251,0.048046,0.038455,0.030908,0.039232,-0.041701,-0.055238,-0.081799,-0.08883,-0.082135,-0.086398,-0.08023,-0.073845,-0.064017,-0.038043,-0.0065502,-0.053411,-0.0018899,0.072399,0.15061,0.19486,0.1705,0.085026,-0.00090071,-0.056407,-0.079128,-0.065042,0.05485,-0.02414,-0.13898,-0.02377,0.15859,0.13937,-0.035452,-0.070326,-0.080469,-0.014667,0.058067,0.06928,0.047471,0.039822,0.018806,-0.0012818,-0.021511,-0.037588,-0.05258,-0.05621,-0.050535,-0.047687,0.027032,0.0042695,-0.012872,-0.02909,-0.036025,-0.035668,-0.030317,-0.016398,-0.0041765,-0.0049894,-0.0053754,-0.029416,-0.034596,-0.041795,-0.020239,-0.0050987,-0.0020042,0.0067169,0.016488,0.031862,0.035411,0.055823,0.096523,0.08748,-0.19317,-0.2407,0.035416,0.11466,0.081242,0.054924,-0.018052,-0.0092859,0.018002,-0.0060539,-0.0093792,-0.010714,-0.010297,-0.0081797,-0.0066326,-0.0073618,-0.011578,-0.01095,-0.012058,0.0017788,0.01685,0.0037114,-0.01571,-0.026723,-0.036786,-0.036217,-0.028495,-0.0010759,0.025911,0.029205,0.0067815,-0.007925,0.045028,-0.017871,-0.05364,0.0053973,0.033827,0.037484,0.0031884,-0.034845,0.0043247,0.004666,0.0032293,-0.013492,-0.0015612,0.025035,0.015923,-0.061504,-0.0054266,0.086729,-0.060823,-0.028416,0.039818,0.015379,0.0028629,-0.010276,-0.030181,-0.036782,-0.016417,0.0045804,0.010207,0.011969,0.0083808,0.0096789,-0.0031011,-0.0056832,0.00073147,-0.0041383,-0.021995,-0.028792,-0.023485,-0.022536,-0.025206,-0.019154,-0.03276,-0.057172,-0.060515,-0.047791,0.02247,0.089541,0.13051,0.13873,0.11213,0.069207,0.031833,0.019007,0.012011,0.023519,0.0012155,0.0074549,0.0089263,-0.028649,-0.035894,-0.0081783,0.013071,0.0079118,0.014487,-0.00057773,-0.013315,0.0053932,0.01368,0.0061039,-5.4596e-05,0.022284,0.016496,-0.0034825,-0.0047125,0.0096053,0.002295,-0.022427,-0.040816,-0.059728,-0.048109,-0.011722,0.0075086,0.024487,0.044507,0.025444,0.0060647,-0.013942,0.0043146,0.051318,-0.1262,0.091966,0.093741,-0.21983,0.094506,0.10266,-0.12888,0.037475,0.028923,0.024685,0.021841,0.0088775,0.0053372,0.010657,0.018176,0.02896,0.021529,0.015822,0.02634,-0.010619,0.055791,-0.0052138,-0.1183,0.0073041,0.1108,0.015131,-0.055634,-0.02181,0.011737,-0.00073091,0.00017621,0.0071166,-0.019035,-0.030542,0.014626,0.027866,0.0045928,-0.0012786,-0.0051782,-0.004712,0.0043728,0.0020716,0.0025308,-0.0085224,-0.0087375,-0.0017121,0.00093278,-0.00055126,-0.003238,0.0013158,-0.0064519,-0.0071703,-0.037709,-0.005147,0.029668,0.029582,0.02362,0.035052,0.03412,0.002454,-0.023108,-0.027281,-0.020462,0.043176,0.045334,0.061513,0.06112,0.054344,0.047725,0.041183,0.032972,0.014518,0.0046253,0.009152,-0.08391,-0.019038,0.14233,0.10103,-0.083299,-0.20499,-0.065562,0.12934,0.11157,-0.025344,-0.044639,0.021272,0.023258,0.027863,0.032234,0.030401,0.020115,0.022964,0.015942,0.0053773,-0.0036735,-0.013864,-0.049711,-0.02498,-0.0045441,0.019035,0.033089,0.028564,0.019482,0.0034406,-0.0061593,-0.012152,-0.043858,0.0050049,-0.072055,-0.097984,-0.086865,-0.020671,0.08003,0.12813,0.089327,0.045089,-0.0096175,-0.040044,0.060635,0.05659,0.079811,0.090332,0.092997,0.092792,0.096076,0.094829,0.080755,0.054253,0.06463,0.037596,0.057958,-0.049417,-0.10759,-0.08955,-0.038871,0.10189,0.16185,0.063623,-0.04792,-0.088063,0.010799,0.0080818,0.023054,0.044682,0.07569,0.10779,0.113,0.10398,0.080058,0.050078,0.031671,0.044873,0.047129,0.057088,0.047036,0.013885,-0.009301,-0.055261,-0.079035,-0.066064,-0.045487,-0.013382,0.023765,-0.031135,-0.062554,0.092746,0.071482,-0.0029497,0.021828,-0.085718,-0.080034,0.063583,0.045283,0.0062283,-0.011494,-0.013074,-0.029007,-0.055323,-0.066473,-0.06902,-0.05866,-0.043298,-0.032614,-0.0097375,-0.022961,-0.043719,0.006884,0.085231,0.11772,0.051213,-0.11721,-0.18254,-0.03907,0.070451,0.023362,0.023563,-0.058645,0.014631,0.064113,-0.081474,0.0315,0.022768,-0.036266,0.044419,-0.032537,0.0020949,-0.071282,-0.036621,-0.0025773,0.0024328,0.0031286,0.011585,0.0049471,0.0039305,0.0025262,-0.0049902,0.010398,-0.013667,-0.02143,0.013872,0.045649,0.060865,0.067867,0.044055,0.0037412,-0.027248,-0.039596,-0.011036,-0.0082266,0.04684,-0.024005,-0.041073,-0.015917,-0.071993,0.098536,0.16466,-0.14086,-0.12025,0.076479,0.053682,0.024497,0.0158,0.014451,0.011975,0.0057936,-0.010328,-0.015538,-0.016685,-0.020339,-0.0042746,-0.045435,-0.049705,-0.081119,-0.11604,-0.13004,-0.13507,-0.13425,-0.10823,-0.088831,-0.072802,-0.061214,-0.034267,-0.047869,-0.046921,-0.037403,-0.023181,-0.01069,8.0043e-05,0.015494,0.033221,0.038571,0.041379,-0.0078917,-0.0099677,-0.010665,-0.016518,-0.013514,-0.013156,-0.014861,-0.019996,0.00056882,0.02133,0.040528,-0.0064412,0.0010353,-0.0037929,-0.0064526,-0.0050898,0.0035972,0.0020101,-0.010415,-0.0075078,-0.012032,-0.012034,-0.014408,-0.018949,-0.041546,-0.085767,-0.14697,-0.18463,-0.17084,-0.12944,-0.08873,-0.047493,-0.018341,0.029339,0.023137,0.0084537,-0.0048416,-0.0084587,-0.0081663,-0.0058181,-0.0087862,-0.0032028,-0.0033691,-0.0023945,-0.0031934,0.00062251,-0.0093643,-0.01114,-0.0060429,-0.010297,-0.0066444,-0.0055394,0.0016474,-0.0041474,-0.0058406,-0.013912,-0.026418,-0.023004,-0.013494,0.0070005,0.040878,0.060024,0.057214,0.037538,-0.00096533,-0.0084513,0.013197,0.0017514,0.00097354,-0.0039114,-0.0010572,0.003649,-0.0016903,0.0065836,-0.0030762,-0.0018826,0.011999,-0.01798,-0.0038568,-0.01663,-0.014573,0.049395,0.12326,0.084938,-0.010211,-0.054906,-0.048587,-0.027714,-0.0039026,0.032447,0.060841,0.091358,0.14703,0.16053,0.14018,0.068538,-0.021882,-0.10554,-0.076017,0.0021589,0.0041804,0.0030468,0.0012792,-0.0030185,-0.0046372,-0.0099779,-0.0030193,-0.0068038,-0.0016568,-0.0056474,0.017275,0.016563,0.00012669,-0.022189,-0.051656,-0.079703,-0.091065,-0.091806,-0.075618,-0.057965,-0.025252,0.020206,0.028306,0.048224,0.063178,0.064863,0.056875,0.049762,0.03755,0.023075,0.0050206,0.00018904,0.032337,0.033449,0.033643,0.031338,0.033983,0.032291,0.027732,0.026729,0.031498,0.02871,0.031456,0.044342,0.058881,0.081455,0.10037,0.1036,0.10508,0.10009,0.082598,0.066008,0.047905,0.045126,0.02172,0.012116,0.021672,0.024319,0.018898,0.012585,0.005418,-0.013634,-0.036003,-0.044032,-0.034998,0.041728,0.043599,0.044042,0.041678,0.038133,0.025417,0.014458,0.0063803,0.0047587,0.0011711,0.00073467,-0.012665,-0.0083214,-0.0088515,0.004911,0.0046041,-0.00060941,-0.0019397,-0.0094893,-0.0042056,-0.00079346,0.0091096,0.040672,0.043166,0.030996,-0.00072075,-0.020363,-0.031262,-0.031988,-0.030411,-0.013482,0.0012404,0.023427,-0.022961,-0.020532,-0.018338,0.0026648,0.023114,0.025018,0.023158,0.015592,0.0024832,0.0025066,0.00081142,0.0011009,-0.0024013,-0.0012633,0.002335,0.0030412,0.0039536,0.0079853,0.0054693,-0.00040118,0.0027939,-0.0055797,0.018079,0.020347,0.0098754,0.0064839,-8.5812e-05,-0.0061365,0.0056928,0.011521,0.021438,0.017117,0.026218,0.059503,0.054657,0.061709,0.059923,0.051909,0.042523,0.031837,0.011146,-0.0082559,-0.017173,-0.035596,-0.017236,0.00065745,0.016098,0.0016839,-0.010896,-0.016558,-0.018744,0.058466,0.10604,0.05849,-0.00010246,-0.075049,-0.078061,-0.084288,-0.076895,-0.059742,-0.053241,-0.0408,-0.016191,0.0050159,0.014065,0.040555,0.024078,0.0049302,-0.018199,-0.043608,-0.07035,-0.095088,-0.11946,-0.14258,-0.1505,-0.13991,-0.13536,-0.0085316,0.0052249,0.030061,0.048934,0.061548,0.078207,0.081355,0.08496,0.08211,0.076072,0.070527,-0.01616,-0.0052926,-0.01164,-0.0084357,-0.0023325,0.0059563,0.0088354,0.017886,0.019326,0.020756,0.01805,-0.054753,-0.040578,-0.038533,-0.039723,-0.045549,-0.047091,-0.038893,-0.034977,-0.025999,-0.025741,-0.043919,0.048839,0.037386,0.033604,0.035495,0.036368,0.040482,0.038262,0.036773,0.024192,0.022426,0.0052882,0.055187,0.072487,0.086596,0.076548,0.048874,0.011248,-0.04702,-0.10055,-0.12536,-0.121,-0.091424,-0.030327,-0.022806,-0.012378,-0.020134,-0.017571,-0.0071147,0.033986,0.12368,0.21136,0.22279,0.16119,-0.081169,-0.043416,-0.002929,0.015576,0.023602,0.028274,0.027807,0.031338,0.035051,0.043885,0.062275,-0.018403,-0.035333,-0.049107,-0.06136,-0.067869,-0.077502,-0.08237,-0.088971,-0.081345,-0.064849,-0.043441,0.098827,0.069837,0.049338,0.015983,0.0011814,-0.012763,-0.021431,-0.033573,-0.047927,-0.045647,-0.061587,0.0064741,-0.0015051,0.013387,0.020218,0.011576,-0.025138,-0.056851,0.012549,0.01622,-0.017869,-0.001897,-0.024678,-0.023343,-0.021531,-0.015751,-0.016508,-0.0099748,-0.010931,-0.0098402,-0.0039405,0.0004416,0.0044019,-0.012479,-0.0057413,0.0028414,0.01863,0.045915,0.061789,0.071312,0.05932,0.04653,0.026109,0.0066172,-0.040264,-0.033858,-0.025016,-0.0057837,0.032993,0.060035,0.078296,0.083892,0.078268,0.067227,0.068066,0.015617,-0.0087977,-0.0275,-0.041131,-0.039713,-0.041983,-0.031432,-0.015616,-0.0028273,0.017226,0.034052,-0.015307,-0.016174,-0.013711,-0.016394,-0.021477,-0.020086,-0.022778,-0.017531,-0.011425,-0.01205,-0.014297,-0.011252,-0.016537,-0.019466,-0.021959,-0.03099,-0.034795,-0.037669,-0.037783,-0.039692,-0.038927,-0.042379,0.054039,0.070819,0.099901,0.092849,0.049529,-0.017225,-0.076384,-0.10585,-0.10448,-0.079093,-0.045768,-0.025649,-0.022244,-0.023494,-0.029889,-0.034835,-0.039872,-0.03531,-0.029694,-0.024892,-0.016587,-0.012157,-0.05414,-0.078197,-0.087966,-0.066104,-0.025904,0.015444,0.031039,0.033817,0.026301,0.019091,0.022874,0.022032,0.021396,0.018609,0.017053,0.0056611,-0.0046546,-0.0083289,-0.021061,-0.024297,-0.026437,-0.027546,0.019197,0.0071067,0.0016044,0.011037,0.00090218,-0.0015574,0.002433,0.0069408,0.0034087,0.0014068,0.015518,-0.079368,-0.071533,-0.072532,-0.061809,-0.04273,-0.022645,0.0067372,0.037453,0.063137,0.074191,0.098677,-0.0097608,-0.0015757,0.067813,0.052275,-0.078208,-0.056975,-0.0073179,-0.029584,-0.00028213,-0.0011265,-0.0053888,0.007738,0.0093146,0.016221,0.02033,0.015141,0.0035004,-0.011294,-0.024379,-0.022641,-0.020091,-0.011429,-0.011033,-0.0025516,0.0041871,0.028676,0.050073,0.065842,0.087161,0.08444,0.072849,0.054076,0.051687,-0.034735,-0.044333,-0.037791,-0.031566,-0.029997,-0.021145,-0.019471,-0.017915,-0.011734,-0.012555,-0.014134
